#include <math.h> 
 #include <string.h> 
#include "./include/k2c_include.h" 
#include "./include/k2c_tensor_include.h" 

 


void c_model(k2c_tensor* conv1d_input_input, k2c_tensor* dense_3_output) { 

size_t conv1d_stride = 1; 
size_t conv1d_dilation = 1; 
float conv1d_output_array[1152] = {0}; 
k2c_tensor conv1d_output = {&conv1d_output_array[0],2,1152,{18,64, 1, 1, 1}}; 
float conv1d_kernel_array[960] = {
-1.25378564e-01f,+6.40589073e-02f,+6.69394806e-02f,+1.16065197e-01f,+2.03128308e-01f,
-1.02941561e-02f,+2.07972024e-02f,+2.07734972e-01f,-4.75146547e-02f,-1.07029796e-01f,
-1.72533929e-01f,-7.19014853e-02f,+8.91896114e-02f,+5.09496685e-03f,-7.83987790e-02f,
-4.75187004e-02f,+2.43953362e-01f,+1.10497959e-01f,-1.53964669e-01f,+1.17955551e-01f,
+9.63049084e-02f,+1.78696334e-01f,+7.96627067e-03f,-2.87775584e-02f,-1.43165141e-02f,
-6.39149873e-03f,+4.84211463e-03f,+2.62299832e-02f,+8.45669508e-02f,+1.64491594e-01f,
+2.23237500e-01f,+1.60008103e-01f,-1.55222267e-01f,+2.60702055e-03f,-1.60874009e-01f,
-5.59529290e-02f,+2.01831520e-01f,-1.69106901e-01f,+6.23125471e-02f,+5.33312708e-02f,
+7.55887479e-02f,-6.53002858e-02f,-2.22388819e-01f,-6.21521026e-02f,+6.01837039e-02f,
+2.20173821e-01f,+8.94367695e-03f,+6.08214084e-03f,+4.37350124e-02f,-4.57685888e-02f,
+4.63130809e-02f,+2.31356360e-04f,-9.08385143e-02f,-2.75015086e-01f,+2.57860273e-02f,
+1.36911780e-01f,+1.36537611e-01f,+7.06321895e-02f,-6.58520758e-02f,-2.89505184e-01f,
-7.87356272e-02f,-3.17224711e-01f,+4.72009331e-02f,-1.53315008e-01f,-8.01401883e-02f,
-4.58139107e-02f,-1.31846994e-01f,+4.31299619e-02f,+1.39337704e-02f,-1.58485219e-01f,
-1.16954818e-01f,-2.20923424e-01f,-6.10692799e-03f,-1.41321570e-01f,+2.90735010e-02f,
-9.68844816e-02f,-6.27564564e-02f,-1.29424140e-01f,+9.03303549e-02f,+1.20831281e-01f,
-8.67281780e-02f,-1.38154969e-01f,+3.84219289e-02f,+8.97559375e-02f,+1.11932486e-01f,
+1.03736378e-01f,-8.38057883e-03f,+1.55570358e-01f,+1.22934580e-01f,-1.16229147e-01f,
-3.24863419e-02f,+7.85312802e-02f,-9.39909592e-02f,-2.59504437e-01f,-7.38037676e-02f,
+2.58610351e-03f,-1.10527351e-01f,-2.18213741e-02f,+8.39248076e-02f,-1.33532092e-01f,
-1.61257386e-01f,-2.67490745e-01f,-1.87867656e-01f,+1.86077207e-02f,-1.68998241e-01f,
-2.74147242e-02f,+1.32152364e-01f,-1.22847497e-01f,-2.50600427e-02f,-3.60966884e-02f,
-1.06555268e-01f,-1.97077524e-02f,-9.36389416e-02f,+1.35256350e-01f,-8.57655853e-02f,
-8.93951505e-02f,+1.14184842e-01f,-8.85137692e-02f,+9.97193381e-02f,+7.28234053e-02f,
+4.07517888e-02f,-1.69169411e-01f,+2.25382939e-01f,-9.72277597e-02f,+1.65911302e-01f,
-1.89706489e-01f,-1.66083172e-01f,-1.36502624e-01f,+1.88479424e-01f,+4.64680828e-02f,
-9.49213132e-02f,+7.68810790e-03f,-1.23127237e-01f,-1.23100467e-01f,-1.67712167e-01f,
-5.48510477e-02f,+4.62552309e-02f,-5.18836416e-02f,-6.19377084e-02f,-1.09144896e-02f,
+3.55522856e-02f,-3.93409878e-02f,+9.25981626e-02f,+8.69237110e-02f,+7.19795674e-02f,
-1.52146360e-02f,-1.08239911e-01f,-3.50370072e-02f,+1.12580970e-01f,-8.62106010e-02f,
+7.76886344e-02f,+5.45569174e-02f,+9.05614793e-02f,+2.69733816e-01f,+7.51119293e-03f,
-7.04444125e-02f,-1.71954274e-01f,-1.48191944e-01f,-7.87016824e-02f,+2.35267803e-02f,
+3.67154181e-03f,+1.27907962e-01f,+9.91891399e-02f,+5.63153327e-02f,-5.81788644e-02f,
-4.35507484e-02f,+1.47675768e-01f,+1.05782002e-02f,-1.04252353e-01f,-8.30319524e-03f,
-6.80650100e-02f,+1.85872793e-01f,+1.52708530e-01f,+8.85973349e-02f,+1.68020993e-01f,
-3.92433852e-02f,+4.16796803e-02f,+1.28754854e-01f,-8.62114727e-02f,+4.09368053e-02f,
-1.76495388e-02f,+2.81504262e-02f,+5.88787086e-02f,+1.94418486e-02f,+1.52921319e-01f,
-1.00163378e-01f,+1.56592503e-01f,-7.61702061e-02f,-5.25217578e-02f,-1.34554347e-02f,
+1.55091286e-04f,+1.62854642e-02f,+2.66704801e-02f,+4.41606045e-02f,-1.86336488e-01f,
+1.37983233e-01f,+1.66313928e-02f,+1.74193978e-01f,+4.62565906e-02f,+1.22256674e-01f,
+2.59354711e-02f,-1.20212302e-01f,-9.44661558e-01f,-9.40543488e-02f,-2.43294284e-01f,
+3.26245204e-02f,-9.67038572e-02f,-2.20068321e-01f,+4.49999198e-02f,+1.02932245e-01f,
+1.60803124e-02f,+1.39778107e-02f,-1.00165956e-01f,-5.81288114e-02f,+8.65285322e-02f,
+7.69532621e-02f,+1.52412206e-02f,-1.90910786e-01f,+3.65354531e-02f,+1.23626545e-01f,
-1.47354349e-01f,+2.94992894e-01f,-3.46978039e-01f,-3.41409892e-02f,+1.69065446e-01f,
+8.15393180e-02f,-9.88830402e-02f,-2.62389183e-02f,-3.92464191e-01f,+6.04880631e-01f,
+6.97008967e-01f,+7.14262426e-02f,-6.98184920e-03f,+1.13071352e-01f,+9.72103849e-02f,
-1.41986206e-01f,+2.77055949e-02f,+1.41776681e-01f,-5.49011752e-02f,+1.69004902e-01f,
+5.54382801e-02f,+1.58184707e-01f,-2.06127003e-01f,+7.46775568e-01f,-5.40982127e-01f,
+3.98560435e-01f,+5.71027063e-02f,+1.78255081e-01f,+9.32146143e-03f,+7.18904376e-01f,
-1.77433610e-01f,-4.11044896e-01f,-3.07256073e-01f,-6.05846420e-02f,-5.15498519e-02f,
+3.64382416e-02f,-2.49433275e-02f,-2.89281607e-01f,+8.00006539e-02f,+8.11536834e-02f,
-1.50320232e-01f,-1.97378490e-02f,+3.41942646e-02f,+8.83065239e-02f,-9.92076322e-02f,
-4.28678058e-02f,-5.41713312e-02f,+1.43492460e-01f,+2.50503778e-01f,+3.19459021e-01f,
+5.16542420e-02f,+2.24844608e-02f,-2.86879212e-01f,-1.60865307e-01f,+2.52192710e-02f,
-8.73169005e-02f,+2.20323622e-01f,-1.89428344e-01f,-6.26982674e-02f,-9.20438319e-02f,
-1.39099360e-01f,-8.34679902e-02f,-1.89223468e-01f,+6.35932386e-02f,-6.28906265e-02f,
+9.85143483e-02f,+1.05865754e-01f,+2.19336618e-02f,+1.69760615e-01f,-1.96070924e-01f,
+7.73074701e-02f,-3.52618396e-02f,+1.24663487e-01f,+3.57043482e-02f,-1.06159016e-01f,
-8.51386413e-02f,-1.30049691e-01f,+1.69086277e-01f,+2.61950135e-01f,+8.31814036e-02f,
-1.03529610e-01f,+1.13756202e-01f,+1.49914742e-01f,+2.90753394e-01f,-3.42268795e-02f,
-2.62723267e-02f,-7.43011460e-02f,+1.54545650e-01f,+8.15469176e-02f,+1.67415261e-01f,
-1.21852182e-01f,-8.36756006e-02f,-2.94953406e-01f,+3.61333042e-01f,+4.25262824e-02f,
-5.66645861e-02f,-3.53246258e-04f,-1.69570103e-01f,+8.35179687e-02f,+1.50365382e-01f,
-1.37118965e-01f,+4.20223624e-01f,+1.96817726e-01f,+9.24374089e-02f,+1.38919294e-01f,
+2.52545059e-01f,+2.33050704e-01f,+2.13779777e-01f,-5.03067151e-02f,-2.96485394e-01f,
-2.02443227e-01f,-5.58894873e-02f,+5.32910228e-02f,-4.72882912e-02f,-2.23963901e-01f,
+1.57140151e-01f,+3.20449583e-02f,+3.26180726e-01f,-2.63139784e-01f,+2.62039065e-01f,
+4.53438088e-02f,+1.89492345e-01f,+1.36771873e-01f,-1.29592165e-01f,+3.66147757e-02f,
-8.43153447e-02f,-3.29682529e-02f,+2.08510160e-01f,+9.71431732e-02f,+1.15638256e-01f,
+1.01095922e-01f,+2.29498312e-01f,+9.40401554e-02f,+8.71143416e-02f,-5.61136100e-03f,
-2.66976506e-02f,-2.53734719e-02f,-2.94107478e-02f,+2.06424505e-01f,+1.45809144e-01f,
+1.75320789e-01f,-9.41947997e-02f,-1.05776072e-01f,+1.60072893e-01f,-1.28763765e-02f,
+3.45492870e-01f,+1.27575725e-01f,+1.23158339e-02f,+1.91946626e-02f,+6.13104254e-02f,
+1.32738322e-01f,-1.47685409e-01f,-1.67053118e-01f,-2.78064400e-01f,+1.22414388e-01f,
+9.82711539e-02f,+1.62588842e-02f,+8.76381323e-02f,-3.29460204e-01f,-3.81590217e-01f,
-1.78749099e-01f,-2.53014296e-01f,-3.70329469e-02f,-3.65980864e-02f,-1.65169895e-01f,
-6.58884719e-02f,-1.37410223e-01f,+2.77361646e-02f,+6.70905486e-02f,+5.64257130e-02f,
+1.11104295e-01f,+3.73948514e-02f,+5.99082857e-02f,-8.29528049e-02f,+5.72696216e-02f,
+4.07371968e-02f,-9.43323374e-02f,-1.78847924e-01f,+3.88470516e-02f,+7.96810612e-02f,
-2.97657460e-01f,-1.55393898e-01f,-2.06579436e-02f,-1.75077585e-03f,+1.10369511e-01f,
-6.53020218e-02f,-1.04070440e-01f,-7.67397508e-02f,+1.28139138e-01f,-6.50731400e-02f,
-6.95779398e-02f,-1.38075382e-01f,-2.31438130e-01f,-1.80853270e-02f,+9.04098600e-02f,
-2.62474269e-02f,+6.48394972e-02f,-1.21623725e-01f,+9.95468050e-02f,-3.03754807e-02f,
-8.02486911e-02f,+3.13532278e-02f,-1.93040982e-01f,-8.24072734e-02f,-1.35164648e-01f,
-1.62115678e-01f,-1.09700188e-01f,+1.42860621e-01f,-1.67374656e-01f,+6.57046288e-02f,
+1.31307006e-01f,-7.50115421e-03f,+1.50869071e-01f,-7.94781744e-03f,+5.96531034e-02f,
-6.11974373e-02f,-7.70720989e-02f,-2.33833611e-01f,+4.75195870e-02f,-2.41094247e-01f,
-9.18330848e-02f,-3.19083661e-01f,+9.51261669e-02f,+1.62121788e-01f,+1.02510437e-01f,
+8.96011665e-03f,+6.95377588e-03f,+1.54501855e-01f,-1.28104061e-01f,-1.05354734e-01f,
+1.70329306e-02f,+1.39722735e-01f,+7.86825195e-02f,+5.96092315e-03f,+1.37479737e-01f,
-1.12891294e-01f,-7.50866532e-03f,-1.01273358e-01f,-1.71476286e-02f,+4.75571901e-02f,
+1.72897249e-01f,+6.52727708e-02f,-1.24070898e-01f,-6.92974776e-02f,-8.54483098e-02f,
-1.32241070e-01f,+1.69601113e-01f,-9.13670212e-02f,+9.59746838e-02f,+1.09259961e-02f,
+4.98218127e-02f,+1.09226346e-01f,-1.12425342e-01f,+3.25175077e-02f,+8.60302597e-02f,
+1.62741169e-01f,+2.22995374e-02f,-1.49696565e-03f,+8.18573460e-02f,+9.22327414e-02f,
+1.61624908e-01f,+6.33594394e-02f,-1.49575379e-02f,-1.45320147e-02f,+1.59094244e-01f,
-2.56809872e-03f,-1.06395356e-01f,+3.18762958e-02f,+3.98075674e-03f,+2.95072347e-02f,
-7.04731271e-02f,-1.33740008e-01f,+1.18615568e-01f,+3.73199806e-02f,-2.77055651e-02f,
-4.47026007e-02f,+1.32769346e-01f,+4.96667624e-03f,-3.76274474e-02f,-7.24403411e-02f,
+1.11518241e-02f,-1.32446885e-01f,+1.70083553e-01f,-2.66372897e-02f,-6.54432550e-02f,
+4.41307612e-02f,-5.61329648e-02f,-1.00640289e-01f,-7.02669546e-02f,+9.00087208e-02f,
+7.13435709e-02f,+2.97033787e-02f,-6.85117319e-02f,-1.01685032e-01f,-5.31831264e-01f,
-9.09814090e-02f,-3.07584941e-01f,-3.05524524e-02f,-1.90670639e-01f,+9.33372527e-02f,
+4.75032479e-02f,-2.04899888e-02f,-7.48600006e-01f,-7.29096457e-02f,-2.16705263e-01f,
+3.20556253e-01f,+1.65977199e-02f,-2.39732072e-01f,-3.93265426e-01f,-2.06102684e-01f,
+1.26086175e-01f,-1.41718239e-01f,+4.07365784e-02f,-2.07070075e-03f,-3.04184109e-03f,
+1.05893509e-02f,+4.05286252e-03f,+1.44201159e-01f,+4.84332107e-02f,+1.48099378e-01f,
-1.26818329e-01f,+1.43018678e-01f,-1.23690344e-01f,-7.81720951e-02f,-6.12499416e-02f,
+1.66942611e-01f,-7.05736876e-02f,+1.01876169e-01f,-4.19860452e-01f,+3.70097339e-01f,
+4.97715771e-01f,-1.73007697e-02f,+2.78324056e-02f,-1.23566255e-01f,+1.22927599e-01f,
+7.03651607e-02f,+1.46513522e-01f,+6.89030364e-02f,+1.58715397e-01f,+3.50771725e-01f,
-2.82025188e-02f,+1.02072835e-01f,-1.27071083e-01f,+6.09504938e-01f,-3.49958986e-01f,
+4.00692075e-01f,+7.36328140e-02f,-9.03801620e-02f,-6.19570166e-02f,+6.00875676e-01f,
+1.27522752e-01f,-3.46798688e-01f,-3.39189053e-01f,-1.71031550e-01f,-5.70486858e-02f,
-9.01497751e-02f,-1.01333298e-01f,-2.49729697e-02f,-1.27897914e-02f,-9.98269916e-02f,
+4.70600910e-02f,+8.58926103e-02f,-8.03266466e-02f,-1.80786684e-01f,-5.67641407e-02f,
-1.34861752e-01f,-2.24260852e-01f,-5.30733168e-02f,+1.86214313e-01f,+4.75265533e-02f,
+3.15097034e-01f,-2.20662892e-01f,-1.68197811e-01f,-2.43591685e-02f,+1.71517044e-01f,
-1.30948842e-01f,+1.96391910e-01f,+1.53500699e-02f,+4.42689136e-02f,+2.66531203e-03f,
-1.18615732e-01f,+6.13601245e-02f,-1.15620829e-01f,-6.02342226e-02f,-1.16196789e-01f,
+8.82896259e-02f,-1.39270023e-01f,-1.36290923e-01f,-8.54026452e-02f,-1.15761399e-01f,
-4.69156764e-02f,-1.67471752e-01f,-5.80820553e-02f,+4.82698791e-02f,-1.78568006e-01f,
-6.32511079e-03f,-1.43629640e-01f,-4.59609479e-02f,+6.13604337e-02f,-3.63815576e-02f,
-7.93476775e-02f,-1.53227538e-01f,-4.93142158e-02f,+3.88551384e-01f,-1.62281498e-01f,
-1.06901668e-01f,-4.44997810e-02f,+3.39833915e-01f,+1.62612885e-01f,+1.02879524e-01f,
-2.84487545e-01f,-2.20114917e-01f,-1.08995669e-01f,+3.07881862e-01f,+5.27593791e-02f,
+2.00372905e-01f,+2.05883145e-01f,-3.72836925e-02f,-8.85150060e-02f,-1.64589256e-01f,
-3.24758813e-02f,+5.59091032e-01f,+3.49007130e-01f,-1.10529304e-01f,-7.28226081e-02f,
+5.59724122e-03f,+3.02007735e-01f,+1.07278094e-01f,-1.38998657e-01f,-4.12681937e-01f,
-3.22651297e-01f,-1.18416548e-03f,+1.73038810e-01f,+3.41330394e-02f,-3.04734290e-01f,
-5.02004754e-03f,+5.38959444e-01f,+5.14331460e-01f,-3.34824711e-01f,+2.80806392e-01f,
+7.09764212e-02f,+3.05497825e-01f,-1.57593027e-01f,+1.34979680e-01f,-1.15075052e-01f,
+1.41645536e-01f,+6.50250390e-02f,+3.10884148e-01f,+5.63899912e-02f,+4.75734740e-01f,
+2.23319605e-01f,+3.44026357e-01f,+1.10136569e-02f,+1.82788640e-01f,-6.29718304e-02f,
+9.93187428e-02f,+2.38515586e-01f,-1.78422466e-01f,+5.21780789e-01f,+8.11010599e-04f,
+5.28193861e-02f,+8.57484937e-02f,-3.43220651e-01f,+1.67368576e-01f,-1.67666957e-01f,
+4.36375141e-01f,-6.92415237e-03f,-2.57986575e-01f,-7.15260208e-02f,+4.43274081e-02f,
+5.79886019e-01f,+1.51336312e-01f,-3.06814969e-01f,-1.91243500e-01f,-8.74657854e-02f,
+1.32803530e-01f,+1.58943370e-01f,+1.02385893e-01f,-3.16878676e-01f,-3.36117327e-01f,
-2.47542113e-01f,-4.48177516e-01f,-4.51625288e-02f,+6.73587322e-02f,-1.31865680e-01f,
-1.99254528e-02f,-2.02710796e-02f,+6.66903034e-02f,-1.59650091e-02f,-6.59272820e-02f,
-4.47687171e-02f,-7.26319179e-02f,-4.12058681e-02f,-1.03342850e-02f,+6.16947673e-02f,
+7.08977133e-02f,-6.35808110e-02f,-8.56543109e-02f,+1.67451754e-01f,-1.00543082e-01f,
-1.18229210e-01f,-1.09183997e-01f,-8.24721530e-02f,+3.26200165e-02f,-6.52575912e-03f,
+8.57483447e-02f,+1.03141166e-01f,+9.98233035e-02f,-1.66938141e-01f,-3.31304804e-03f,
+5.25283739e-02f,+9.42853317e-02f,-4.94021140e-02f,-6.91597089e-02f,+3.98613550e-02f,
-1.88576393e-02f,-1.49957687e-01f,-6.40305877e-02f,-1.21803924e-01f,+1.36360615e-01f,
-3.81276682e-02f,-3.65482509e-01f,-1.83982074e-01f,-1.32900864e-01f,-2.22042948e-01f,
-5.01730889e-02f,-4.57101241e-02f,-1.42550915e-02f,+1.50746256e-02f,+8.16938281e-02f,
+8.96725953e-02f,-1.37023935e-02f,+8.78565013e-03f,-8.26941431e-03f,+2.68864721e-01f,
-9.96874645e-02f,-8.22656751e-02f,-2.85189122e-01f,-5.69344778e-03f,-9.31721274e-03f,
+1.88360006e-01f,-1.42640874e-01f,+7.04246536e-02f,+2.09728211e-01f,+2.05669284e-01f,
-2.67768174e-01f,+1.43073350e-02f,-2.43969858e-02f,+6.53807521e-02f,+6.09873571e-02f,
+6.95344582e-02f,-2.61096675e-02f,+4.87122647e-02f,+5.91460280e-02f,+1.31914942e-02f,
+1.60130158e-01f,+9.87886190e-02f,+6.10365160e-02f,-6.18718471e-03f,+1.64585054e-01f,
-1.75099358e-01f,-1.04117561e-02f,-6.89438283e-02f,+2.53478792e-02f,+7.01286085e-03f,
+1.50385439e-01f,-1.12486176e-01f,+1.34182051e-01f,-9.54695418e-02f,+8.35118145e-02f,
-6.68024048e-02f,-5.32924868e-02f,+1.13918126e-01f,-1.00940578e-01f,-6.27470091e-02f,
-8.94690603e-02f,-1.48343612e-02f,+1.13698453e-01f,-7.41052534e-03f,-1.13644019e-01f,
-3.42017114e-02f,-1.73951358e-01f,-3.06991879e-02f,+6.89451247e-02f,-1.18314080e-01f,
+3.20968032e-02f,-5.78930229e-02f,+1.51839942e-01f,-2.93244086e-02f,+8.64455104e-02f,
-1.05309144e-01f,-1.13214124e-02f,+1.36145830e-01f,-1.20500013e-01f,+1.41897887e-01f,
-1.83233932e-01f,+3.53345275e-02f,+3.79624814e-02f,+1.30740166e-01f,-2.90173367e-02f,
-8.30499269e-03f,-6.56669885e-02f,-2.28182003e-01f,-5.04178517e-02f,-7.35208467e-02f,
-3.86768878e-02f,-1.14476629e-01f,-6.43809289e-02f,-1.09003089e-01f,-7.84362555e-02f,
-2.63268799e-02f,+1.57025307e-02f,+1.53358504e-01f,-3.81668620e-02f,-3.04876983e-01f,
-3.19040157e-02f,-2.12484643e-01f,+8.10357481e-02f,+3.37218195e-02f,+1.17662475e-01f,
+5.43880612e-02f,-3.13747942e-01f,-8.29707563e-01f,-1.55980140e-01f,-2.31327638e-01f,
+3.72485250e-01f,+1.99698642e-01f,-2.23081887e-01f,-2.74286754e-02f,-2.17375979e-02f,
+2.77633429e-01f,-1.68187737e-01f,-2.49389350e-01f,-2.42770702e-01f,-1.12784430e-01f,
-2.23005354e-01f,+9.68686938e-02f,+1.54481292e-01f,-1.54958501e-01f,-7.62182251e-02f,
-2.86388695e-01f,+1.92621678e-01f,-2.99713522e-01f,-2.45447472e-01f,-1.13723040e-01f,
-2.85698295e-01f,+8.77948329e-02f,-1.58196658e-01f,-4.62391078e-01f,+2.78479457e-01f,
+4.25100923e-01f,+9.62294340e-02f,-1.06719017e-01f,-2.66750306e-02f,+1.92995563e-01f,
-9.68229994e-02f,+1.09521210e-01f,+1.32773772e-01f,+1.35680854e-01f,+2.38403410e-01f,
-1.12645634e-01f,+1.17014199e-01f,+5.59402257e-02f,+4.76569474e-01f,-3.22882414e-01f,
+3.35569054e-01f,-2.85530746e-01f,-1.18598446e-01f,-1.61313295e-01f,+4.24255669e-01f,
-2.61544168e-01f,-4.52286661e-01f,-2.55401224e-01f,-2.47914210e-01f,+5.55580556e-02f,
-1.01618014e-01f,-4.14367579e-02f,-1.27041951e-01f,-1.00524224e-01f,-8.45355392e-02f,
+1.91282947e-02f,-1.29779354e-01f,-3.43618810e-01f,+1.01874143e-01f,-8.54080468e-02f,
-1.46469519e-01f,+7.09387958e-02f,+1.18500978e-01f,+6.47054836e-02f,+7.91214630e-02f,
+3.13870758e-01f,+6.86342716e-02f,-1.90957427e-01f,-2.77865827e-01f,+2.70148218e-01f,
-1.57338694e-01f,-4.57643829e-02f,-1.59485400e-01f,-9.26445574e-02f,+2.76528276e-03f,
-1.62179649e-01f,+1.24546632e-01f,-1.83756556e-02f,-2.56385386e-01f,-1.28152758e-01f,
-1.02157302e-01f,-2.06503764e-01f,-1.35663331e-01f,-1.89803094e-02f,-1.80076078e-01f,
-1.19822428e-01f,-9.62634832e-02f,-4.46686357e-01f,-6.90426352e-03f,-3.56830537e-01f,
+5.56560010e-02f,-1.39381096e-01f,+8.66910815e-02f,+1.33681431e-01f,-6.36057854e-02f,
-1.68952480e-01f,+1.91668663e-02f,+1.32561475e-01f,+3.25887412e-01f,-9.25081149e-02f,
-9.31744203e-02f,-3.05995662e-02f,+4.33147490e-01f,-7.61910677e-02f,+2.43385807e-01f,
-6.79631010e-02f,-2.17361003e-01f,-2.10859582e-01f,+1.97880477e-01f,+1.38966531e-01f,
+1.54542685e-01f,+3.28731209e-01f,-1.80204287e-01f,-1.30634338e-01f,+1.10352844e-01f,
}; 
k2c_tensor conv1d_kernel = {&conv1d_kernel_array[0],3,960,{ 3, 5,64, 1, 1}}; 
float conv1d_bias_array[64] = {
-1.21537701e-03f,+2.28360236e-01f,+1.70681193e-01f,-2.59264875e-02f,+3.69416401e-02f,
+2.97268238e-02f,+1.58233121e-01f,+1.42304495e-01f,+0.00000000e+00f,-1.53464422e-01f,
-1.91625804e-01f,+0.00000000e+00f,+2.78340224e-02f,+2.35741828e-02f,-1.59255937e-01f,
+9.15374840e-05f,+2.32054278e-01f,+1.81941360e-01f,-1.66931927e-01f,+1.63334981e-01f,
+2.71855276e-02f,+1.81311533e-01f,-2.18913853e-02f,-6.63776277e-03f,+0.00000000e+00f,
+3.08219739e-03f,-5.26010320e-02f,+2.11310357e-01f,+1.11932948e-01f,+1.79963395e-01f,
+1.52027339e-01f,+9.71200019e-02f,+0.00000000e+00f,-9.81358588e-02f,-1.63143724e-02f,
+0.00000000e+00f,+1.14695966e-01f,+2.53428016e-02f,+1.57880992e-01f,+0.00000000e+00f,
+1.49467617e-01f,+0.00000000e+00f,-1.66252539e-01f,+1.65392179e-02f,+0.00000000e+00f,
+1.56846508e-01f,+0.00000000e+00f,-1.04665503e-01f,+0.00000000e+00f,+0.00000000e+00f,
+2.03620762e-01f,-4.13356759e-02f,-1.64609984e-01f,-5.00065275e-02f,-5.27483635e-02f,
+1.30393624e-01f,-5.83845824e-02f,+8.30287337e-02f,-1.88521415e-01f,-2.06590027e-01f,
-2.04938188e-01f,-1.21792555e-01f,+0.00000000e+00f,+0.00000000e+00f,}; 
k2c_tensor conv1d_bias = {&conv1d_bias_array[0],1,64,{64, 1, 1, 1, 1}}; 

 
size_t max_pooling1d_stride = 2; 
size_t max_pooling1d_pool_size = 2; 
float max_pooling1d_output_array[576] = {0}; 
k2c_tensor max_pooling1d_output = {&max_pooling1d_output_array[0],2,576,{ 9,64, 1, 1, 1}}; 


float gru_1_output_array[32] = {0}; 
k2c_tensor gru_1_output = {&gru_1_output_array[0],1,32,{32, 1, 1, 1, 1}}; 
float gru_1_fwork[192] = {0}; 
int gru_1_reset_after = 1;
int gru_1_go_backwards = 0;
int gru_1_return_sequences = 0;
float gru_1_state[32] = {0}; 
float gru_1_kernel_array[6144] = {
-1.95669562e-01f,-2.82763869e-01f,-1.28676459e-01f,-9.50719863e-02f,-6.94891587e-02f,
-4.01742868e-02f,-1.11008763e-01f,-1.32834256e-01f,+1.71319097e-01f,+5.14031760e-03f,
+2.59755123e-02f,+3.77390385e-02f,-2.32036393e-02f,-1.25610501e-01f,-1.04739539e-01f,
-1.30686775e-01f,-1.88159302e-01f,+2.02096149e-01f,+8.46659914e-02f,+1.60866585e-02f,
+1.74077988e-01f,-1.34694725e-01f,+5.59921823e-02f,-1.35501474e-01f,+2.39779036e-02f,
+7.44710192e-02f,+8.35463926e-02f,-2.01580718e-01f,-3.19866955e-01f,-1.94973834e-02f,
-3.13105434e-01f,-2.00048029e-01f,+1.48445636e-01f,-3.64220679e-01f,+2.54870713e-01f,
-2.69764978e-02f,-2.80725598e-01f,+1.60667151e-01f,-1.76603079e-01f,-9.45264194e-03f,
-3.79336923e-02f,+2.86569983e-01f,+3.09416205e-01f,+1.96622908e-01f,-5.12522280e-01f,
+5.79258502e-02f,+2.93252096e-02f,+3.46950777e-02f,-9.90824252e-02f,-7.24629983e-02f,
-2.13681787e-01f,+5.72977141e-02f,-2.32104421e-01f,-3.27056721e-02f,+7.63376430e-02f,
-1.96601018e-01f,-1.69267163e-01f,+3.66349250e-01f,+3.47279549e-01f,+3.74168485e-01f,
+2.29457453e-01f,-1.15221523e-01f,+2.14339867e-01f,-5.64005189e-02f,+1.20410258e-02f,
+9.54857320e-02f,-3.08798347e-02f,+1.10672601e-01f,-9.85142142e-02f,-3.75344642e-02f,
+1.07781745e-01f,+2.90057868e-01f,-2.08426788e-01f,+6.08622395e-02f,-1.77711546e-01f,
+2.48612240e-01f,+1.21080421e-01f,-2.07046360e-01f,+4.75406311e-02f,-5.48961610e-02f,
-1.27347738e-01f,+1.68091819e-01f,+1.73548549e-01f,-6.44588396e-02f,-1.70275703e-01f,
-5.69944903e-02f,+2.88282223e-02f,-2.43044987e-01f,-1.48174018e-01f,-5.58461212e-02f,
-9.28741619e-02f,+3.72335017e-01f,+6.18770868e-02f,-2.49897808e-01f,-6.20962083e-02f,
+1.80977091e-01f,-1.67423248e-01f,-1.12540372e-01f,-1.03654623e-01f,-1.10974312e-01f,
+1.48858607e-03f,-1.85219268e-03f,-5.11427633e-02f,-1.74531013e-01f,-8.95078108e-02f,
-7.44159892e-02f,+1.87891647e-01f,+8.45538303e-02f,-2.31996328e-02f,-8.79893824e-02f,
+5.64477332e-02f,+5.02026901e-02f,+8.38416070e-02f,+3.45943198e-02f,-9.34411287e-02f,
-5.60636334e-02f,-1.75474942e-01f,+2.87401378e-02f,-2.96627525e-02f,+9.43072587e-02f,
+6.52734097e-03f,-8.74156803e-02f,+1.18532084e-01f,-1.69905722e-01f,-9.06778648e-02f,
+1.22384340e-01f,-7.39068389e-02f,-4.35025506e-02f,-1.33602191e-02f,+1.22042887e-01f,
-1.76347164e-03f,+1.16997704e-01f,-6.95728511e-02f,+3.31209600e-02f,-6.57173544e-02f,
+1.33756831e-01f,+1.17201194e-01f,+9.01718065e-03f,+3.94640453e-02f,-1.22319460e-01f,
-4.67267446e-02f,+5.85147552e-02f,+1.13761418e-01f,-6.19860291e-02f,-3.78018357e-02f,
-2.37592752e-03f,-2.99113989e-02f,-1.55881554e-01f,-1.38082996e-01f,-2.48533607e-01f,
-5.00401743e-02f,-1.91490680e-01f,-9.13934782e-02f,-1.51722327e-01f,+3.32686044e-02f,
-9.57859084e-02f,+3.77210900e-02f,-2.18818724e-01f,+6.06623925e-02f,-3.90526615e-02f,
-8.91290084e-02f,-2.37117000e-02f,-1.27755567e-01f,-9.99498591e-02f,+5.89707168e-03f,
-1.01402558e-01f,-1.50025040e-01f,+6.01590164e-02f,+1.15926452e-01f,-9.73089784e-02f,
-6.28667548e-02f,+1.27143055e-01f,+4.26205508e-02f,+2.62348913e-02f,+1.68263778e-01f,
-3.24053131e-02f,-6.10160567e-02f,-8.92830938e-02f,-1.09308623e-01f,+9.03061312e-03f,
+8.64884928e-02f,+3.87547016e-02f,+5.02716191e-02f,-5.51925153e-02f,+3.37212184e-03f,
+1.70895278e-01f,+6.31719306e-02f,+1.54275313e-01f,-6.42684922e-02f,+1.07191429e-01f,
-2.16067862e-03f,-2.69161314e-02f,+1.47976041e-01f,+1.55425325e-01f,-2.23251712e-02f,
-1.19376685e-02f,-8.78638178e-02f,-8.28785151e-02f,+1.67990088e-01f,+1.12210855e-01f,
-1.72311217e-01f,-1.67264536e-01f,+7.14456663e-02f,-3.99647355e-02f,+1.22766092e-01f,
-3.73363383e-02f,+2.40124147e-02f,-4.96864058e-02f,-1.19903378e-01f,-6.81932792e-02f,
+8.06386024e-02f,+8.65237713e-02f,-3.87375541e-02f,-5.03790798e-03f,-1.47944391e-01f,
-2.17363164e-01f,+6.03018608e-03f,+1.48352951e-01f,+1.66494902e-02f,+1.22007839e-01f,
+1.43420324e-01f,-2.53183812e-01f,+5.83074391e-02f,+9.39593688e-02f,-1.63264886e-01f,
-4.58008647e-02f,-2.10398972e-01f,-1.26679137e-01f,-6.88215494e-02f,-1.96796015e-01f,
+8.34461749e-02f,+5.76473400e-03f,+1.59398615e-01f,-8.50180537e-02f,+8.21565986e-02f,
+1.27341971e-01f,+2.35740870e-01f,+1.37971684e-01f,-2.29203090e-01f,-1.39241815e-01f,
+1.53949440e-01f,-1.58248737e-01f,-3.92967910e-02f,-3.27799231e-01f,-1.52153179e-01f,
-2.07688808e-01f,-1.41720772e-01f,-8.11708346e-03f,+1.82027981e-01f,+6.74632564e-02f,
+9.72229317e-02f,+1.65387541e-01f,-1.27294600e-01f,+3.68081443e-02f,-2.44052440e-01f,
+1.75090015e-01f,-1.34267956e-01f,+3.55062783e-02f,+1.35211080e-01f,-8.46460238e-02f,
+5.70067465e-02f,+1.47498310e-01f,+3.00131738e-02f,-1.33330911e-01f,+4.45109606e-02f,
+2.61903256e-02f,+1.30403429e-01f,-1.18848205e-01f,+1.49407476e-01f,-5.34528494e-03f,
+2.80625075e-02f,-1.20075807e-01f,-8.48362446e-02f,-1.53824091e-02f,-7.46561363e-02f,
-1.61662340e-01f,-1.86670914e-01f,-1.65079400e-01f,-1.84907749e-01f,+2.77763903e-02f,
-1.55085534e-01f,-7.04053044e-02f,+5.43840080e-02f,-1.13699146e-01f,+5.22003621e-02f,
+9.22348201e-02f,-1.26832724e-01f,+5.57920784e-02f,-1.26757091e-02f,+4.27650008e-03f,
-5.90730309e-02f,-7.29129314e-02f,+4.62209135e-02f,+5.88417910e-02f,-3.49450260e-02f,
+1.22248583e-01f,-4.85040285e-02f,+1.25324607e-01f,-5.13754636e-02f,+4.42690030e-02f,
+2.10390434e-01f,-2.27488279e-01f,+1.13867141e-01f,+1.05840072e-01f,+6.35494590e-02f,
+3.02766711e-02f,-5.16742989e-02f,-6.05213307e-02f,-1.08286597e-01f,+1.94183625e-02f,
-7.63052702e-02f,+8.02342147e-02f,+1.99576676e-01f,-2.43559685e-02f,+4.59653921e-02f,
-1.03425272e-01f,-4.98236716e-02f,+1.62944600e-01f,+1.42286092e-01f,-1.33208465e-02f,
+1.57246649e-01f,+1.85477391e-01f,-3.93204577e-02f,-8.46026614e-02f,+3.65073569e-02f,
+1.58105433e-01f,+7.95968100e-02f,+8.31083357e-02f,+8.58594570e-03f,+1.28483668e-01f,
-7.01329932e-02f,-2.05367774e-01f,-1.38957039e-01f,-1.41430572e-01f,+1.46134675e-01f,
-1.72346264e-01f,+1.48813725e-02f,+3.57706733e-02f,-1.51774913e-01f,-1.21807829e-01f,
-1.51298061e-01f,+3.57721187e-02f,-1.89557508e-01f,+3.23372483e-02f,-1.05221560e-02f,
-8.19011331e-02f,-4.80229966e-02f,-6.75655603e-02f,-5.31799011e-02f,-1.68434203e-01f,
-8.39605704e-02f,-5.68100959e-02f,-1.43443927e-01f,-1.21924527e-01f,+6.07933104e-02f,
+1.44329458e-01f,-8.17919597e-02f,+1.05545968e-01f,+8.77294540e-02f,+1.73580140e-01f,
-5.95748872e-02f,+1.42311335e-01f,-1.22896433e-02f,+1.48873389e-01f,+1.11629665e-02f,
+8.28542411e-02f,+2.91502625e-02f,-5.16576022e-02f,+1.79542899e-01f,-7.10365325e-02f,
+1.50700867e-01f,-5.61495274e-02f,-1.58087760e-02f,-9.83900130e-02f,+1.73042417e-01f,
+1.14463240e-01f,+1.37762398e-01f,-2.18096375e-03f,-3.73551399e-02f,+8.74035060e-02f,
-1.32709086e-01f,-6.51974678e-02f,-1.77060038e-01f,-2.99751759e-03f,+3.58827226e-02f,
+7.89890140e-02f,+1.42656922e-01f,-2.27640361e-01f,-7.53847510e-02f,-3.05772126e-01f,
+6.12119138e-02f,-9.75270867e-02f,+4.55227960e-03f,-2.25231439e-01f,-1.68287769e-01f,
+3.85648906e-02f,+2.01369628e-01f,-7.04346597e-03f,-2.18074873e-01f,+6.34793565e-02f,
-3.13534528e-01f,-5.02709150e-02f,+3.10108036e-01f,-3.28535028e-02f,-4.43885148e-01f,
-1.48882106e-01f,-1.57787353e-01f,-3.75489116e-01f,-1.53991058e-01f,+1.78488847e-02f,
-2.04144791e-02f,+2.05306917e-01f,-2.31286302e-01f,-3.73442203e-01f,-1.21210322e-01f,
+6.29620776e-02f,-3.90602648e-02f,-1.71296269e-01f,+7.64231309e-02f,-1.63391650e-01f,
-3.41527015e-02f,+1.32900536e-01f,-3.80477831e-02f,-3.46183442e-02f,+1.72459349e-01f,
-6.58317527e-04f,+7.30823725e-02f,-1.94152847e-01f,+2.56031863e-02f,-1.50835752e-01f,
+1.37903735e-01f,+1.15731947e-01f,-1.80049725e-02f,+9.65784416e-02f,-5.14579192e-02f,
-5.35190925e-02f,-1.43454373e-01f,-1.83066249e-01f,+1.09268755e-01f,+1.49408340e-01f,
-2.98608448e-02f,-6.45506382e-02f,-8.91441181e-02f,-1.46161079e-01f,-8.45927969e-02f,
+3.70670371e-02f,-1.36358365e-01f,-1.71400636e-01f,+2.61300709e-02f,-1.05165727e-01f,
+1.50668457e-01f,+7.79907405e-02f,-1.94869861e-02f,+9.25292224e-02f,+3.33216153e-02f,
+1.90062568e-01f,+8.24408382e-02f,+5.57015464e-02f,-8.96721855e-02f,-1.23305343e-01f,
-1.31209893e-02f,-2.19428480e-01f,-2.21110899e-02f,+8.13325569e-02f,+2.11185277e-01f,
+1.40752241e-01f,+6.40345588e-02f,-1.81697756e-01f,+1.74187899e-01f,-1.44188613e-01f,
+8.78556520e-02f,+1.52545869e-01f,+1.82699025e-01f,-1.10035790e-02f,-1.06406629e-01f,
+1.34009495e-01f,+6.43135086e-02f,+1.61587164e-01f,-1.20390311e-01f,-1.67843346e-02f,
+7.02289715e-02f,+2.42572144e-01f,+3.78290527e-02f,-1.63489103e-01f,+1.40390858e-01f,
-1.19048268e-01f,+1.02658048e-01f,-1.33315176e-01f,+1.14826277e-01f,-1.23061411e-01f,
+1.06363982e-01f,-7.99164623e-02f,+4.28122170e-02f,-3.50507081e-01f,-1.20604359e-01f,
+1.62343264e-01f,-1.29514948e-01f,-5.66655956e-02f,-2.44862586e-02f,-1.58702761e-01f,
-1.40546069e-01f,-3.68977904e-01f,-2.29609847e-01f,+1.91202033e-02f,+6.21022619e-02f,
-1.51703581e-01f,+8.15039054e-02f,+2.29534172e-02f,+3.53343487e-02f,-8.31713006e-02f,
-1.91124707e-01f,-3.48767817e-01f,+1.65219784e-01f,-2.78720143e-03f,+3.81244682e-02f,
-4.87679802e-02f,-2.63388485e-01f,-1.11736313e-01f,+1.48799181e-01f,+1.37391180e-01f,
+6.24875426e-02f,+1.08281776e-01f,+2.38952696e-01f,-1.56651989e-01f,-4.15421307e-01f,
-2.20353290e-01f,+5.43236770e-02f,+2.38985375e-01f,+1.48122758e-01f,-7.85591304e-02f,
-1.81758329e-01f,-1.70265660e-01f,-1.94590375e-01f,-4.85622920e-02f,-1.39820599e-03f,
-2.28745751e-02f,+5.51924668e-02f,+2.52569020e-01f,+4.76824827e-02f,+2.06807613e-01f,
-6.58902824e-02f,+6.94227889e-02f,+2.80434601e-02f,-3.17502953e-03f,-9.78355557e-02f,
+6.39059693e-02f,-2.58321897e-03f,-1.46306634e-01f,-2.75109291e-01f,-3.21950257e-01f,
+5.05417623e-02f,-1.08446620e-01f,-1.76295996e-01f,-1.73719838e-01f,+1.95671499e-01f,
+3.05535167e-01f,+1.46564588e-01f,+1.55698106e-01f,-1.95548579e-01f,-1.04482934e-01f,
-3.17775607e-01f,+3.92759591e-02f,-9.90063027e-02f,-3.61630842e-02f,-1.90671742e-01f,
-1.27065063e-01f,-2.75792092e-01f,-3.48339766e-01f,-1.45774379e-01f,+2.66022593e-01f,
+3.28215049e-03f,+1.17866509e-01f,-1.57003760e-01f,-2.83247620e-01f,+9.11970511e-02f,
+1.46791250e-01f,+2.35833097e-02f,+1.72427505e-01f,-2.55922467e-01f,+9.03624967e-02f,
+1.89291716e-01f,-2.14852020e-01f,+1.95019752e-01f,+1.63565412e-01f,+8.60731825e-02f,
+4.18496691e-02f,-8.14328864e-02f,+9.90996584e-02f,+4.73461561e-02f,+1.21694461e-01f,
+1.83618128e-01f,-1.21833451e-01f,+1.23767972e-01f,-7.92823806e-02f,+1.37612879e-01f,
+8.84865597e-02f,-4.96192165e-02f,-1.47103369e-01f,+1.39367446e-01f,+2.24923529e-02f,
-3.10267005e-02f,+1.72442630e-01f,+2.16261949e-02f,+1.26141161e-01f,-4.62690480e-02f,
-9.29275379e-02f,-2.28572905e-01f,-6.24174848e-02f,-2.96898603e-01f,+3.18260188e-03f,
+8.69795159e-02f,-1.10384710e-02f,-1.59371465e-01f,-2.34819902e-03f,+9.06543359e-02f,
-6.28597811e-02f,-2.68060956e-02f,-9.06241313e-02f,+1.27614632e-01f,+2.03299567e-01f,
+6.19738810e-02f,+4.03690226e-02f,-1.92871466e-01f,+6.05227239e-02f,-2.58630753e-01f,
-1.05482973e-01f,-3.92547131e-01f,-3.22642177e-01f,-2.85292566e-01f,-1.32403329e-01f,
+6.03280477e-02f,-4.14348841e-01f,+1.13296174e-02f,+7.27167279e-02f,-2.87482273e-02f,
+5.49190752e-02f,+7.61924544e-03f,-5.00703007e-02f,+9.39369425e-02f,-2.51374636e-02f,
+1.41593993e-01f,-2.75226403e-02f,-2.61078626e-01f,-1.83576673e-01f,+1.42012075e-01f,
-8.29965398e-02f,-2.24883687e-02f,+8.55852887e-02f,+1.40233308e-01f,-2.29323760e-01f,
+3.14202867e-02f,+1.11766689e-01f,+1.46220326e-01f,-1.49948429e-02f,-1.73307717e-01f,
-2.59543676e-02f,-2.65507512e-02f,+2.49053054e-02f,+2.36675084e-01f,-2.29938686e-01f,
+2.24039163e-02f,-4.22658622e-01f,-1.58867046e-01f,+2.34611444e-02f,+8.55164155e-02f,
+9.87151414e-02f,-7.21864179e-02f,-4.11200477e-03f,-1.97954308e-02f,-1.79781958e-01f,
-1.63191170e-01f,-2.04454899e-01f,-3.14239897e-02f,-3.48362446e-01f,-2.80963071e-02f,
+1.95029452e-01f,-2.22098157e-01f,-7.91744962e-02f,-1.93036303e-01f,+1.47410184e-01f,
-1.27554432e-01f,+1.48138572e-02f,-8.47596005e-02f,-9.43623576e-03f,-2.84183681e-01f,
+1.11809626e-01f,-5.29950261e-02f,-7.76227610e-03f,+3.55559625e-02f,-1.64975896e-01f,
+1.04266047e-01f,+1.19153880e-01f,-2.52650976e-01f,-9.59322080e-02f,-5.42050414e-02f,
-2.58672267e-01f,+1.87108442e-02f,-1.14143770e-02f,-7.35529885e-02f,+3.27333086e-03f,
+3.59597243e-02f,-9.17208642e-02f,-9.54103991e-02f,+9.64208022e-02f,+1.02348126e-01f,
+5.66568002e-02f,+2.63255481e-02f,-1.34539530e-01f,-3.12894620e-02f,-1.40986159e-01f,
-3.23534273e-02f,-1.05587013e-01f,+1.89870670e-01f,-1.47656143e-01f,+1.54734090e-01f,
+2.67441183e-01f,-1.00556714e-02f,+1.52351558e-01f,-5.12089692e-02f,+2.18676515e-02f,
-3.39917779e-01f,+7.36730695e-02f,-1.01537824e-01f,-1.83280498e-01f,-3.51065993e-01f,
-2.00361013e-01f,+2.36155372e-02f,-3.63321900e-01f,+1.45437986e-01f,+2.20888227e-01f,
+1.60790607e-01f,-4.27986123e-02f,-4.55574505e-02f,-1.17783025e-01f,+2.73143679e-01f,
-3.18091989e-01f,+1.14597239e-01f,-1.12117976e-01f,+5.48558608e-02f,+8.26790258e-02f,
-2.06715316e-02f,+1.98374577e-02f,-4.96089924e-03f,-1.27344340e-01f,+2.79469769e-02f,
+2.74650753e-02f,+2.56410707e-02f,-4.57408056e-02f,+1.94927335e-01f,+1.30536318e-01f,
+1.13308267e-03f,-5.01610711e-02f,+9.99620557e-02f,-7.67297745e-02f,-2.20251121e-02f,
-4.50048819e-02f,+6.73409626e-02f,-1.59695402e-01f,+8.18669423e-02f,+1.93811879e-01f,
+1.86616749e-01f,+1.03601493e-01f,-5.91466064e-03f,+9.52608958e-02f,-1.44225704e-02f,
+7.20686764e-02f,+1.06943935e-01f,-7.16081308e-03f,-1.58433020e-01f,+1.32365257e-01f,
+4.89888638e-02f,+1.30723119e-02f,+1.06840551e-01f,+5.65670729e-02f,-2.26105750e-02f,
-1.07433349e-02f,-7.04520270e-02f,-1.31882250e-01f,-2.96189785e-02f,+6.27643764e-02f,
-1.23761937e-01f,+1.55536741e-01f,-7.59169757e-02f,-1.14928409e-01f,-1.18256867e-01f,
+2.57015824e-02f,+4.64072824e-03f,+1.13263339e-01f,-1.83471560e-01f,+1.69908196e-01f,
+1.40024930e-01f,+1.62604570e-01f,+8.94318223e-02f,-8.20767805e-02f,+1.93361849e-01f,
+9.73258018e-02f,+1.51212871e-01f,-1.17890418e-01f,-1.70721084e-01f,+1.78603709e-01f,
-1.45589083e-01f,-3.52924019e-01f,-1.80266440e-01f,-3.30366254e-01f,+1.84985101e-02f,
-1.80870071e-01f,+7.81017914e-02f,-1.97174892e-01f,-1.11640945e-01f,-1.69848189e-01f,
-3.66181046e-01f,+1.08205661e-01f,-1.13673650e-01f,+1.36279583e-01f,-3.63370270e-01f,
+7.13409507e-04f,-1.26149401e-01f,-1.38196588e-01f,+6.24769591e-02f,-1.39670685e-01f,
-2.46653467e-01f,-2.61911571e-01f,-2.45165318e-01f,-1.45779446e-01f,-4.17149886e-02f,
-1.68583393e-02f,-2.70760983e-01f,-1.31296411e-01f,+9.41547751e-02f,-1.91466644e-01f,
-2.19595656e-01f,-9.30407792e-02f,+8.90347660e-02f,-5.93821406e-02f,-1.27908131e-02f,
-6.83797747e-02f,-6.13888390e-02f,-1.12152308e-01f,-1.48386568e-01f,-1.60904422e-01f,
+1.19993672e-01f,+3.75553034e-02f,+9.22285989e-02f,-1.63490042e-01f,-1.73237771e-01f,
-2.14784801e-01f,+4.86471392e-02f,+1.29167423e-01f,-9.10200253e-02f,-1.07628398e-01f,
+5.98756820e-02f,-1.62842035e-01f,+2.68386062e-02f,-1.26703694e-01f,-9.31388214e-02f,
-1.83444962e-01f,+2.65766829e-02f,-2.82736495e-02f,-2.41401177e-02f,-1.49768665e-01f,
-5.66131286e-02f,-5.84282838e-02f,+1.71959192e-01f,+2.35179942e-02f,+8.98133665e-02f,
-1.37913465e-01f,+5.16278297e-02f,+1.45275980e-01f,-4.67678219e-01f,-3.06987643e-01f,
-8.95257220e-02f,+2.70868987e-02f,+2.08030373e-01f,+3.80500518e-02f,+2.39871830e-01f,
-2.33961672e-01f,-1.89355269e-01f,+3.12584750e-02f,+1.07591972e-01f,+1.51340842e-01f,
-1.39238089e-01f,-6.15103282e-02f,-6.55998439e-02f,-2.83377655e-02f,-1.94563717e-01f,
+2.94324150e-03f,+1.32629514e-01f,-7.17056245e-02f,-2.50308692e-01f,+2.90455282e-01f,
+1.87708437e-01f,+2.84487516e-01f,-1.35576949e-01f,-1.04696024e-02f,+2.13945314e-01f,
+1.01169743e-01f,-1.61201194e-01f,+4.02879789e-02f,-1.45363256e-01f,-1.21098079e-01f,
+2.61593033e-02f,-1.04265645e-01f,+1.25821948e-01f,+1.98206961e-01f,-2.00878590e-01f,
+2.61403099e-02f,+9.52686295e-02f,-7.40360990e-02f,-1.48033261e-01f,-1.94853872e-01f,
+1.07296556e-02f,-6.58236966e-02f,-9.88028646e-02f,+8.15399811e-02f,-1.34850517e-01f,
-1.57849342e-01f,-2.91426200e-02f,-5.56807518e-02f,-5.14196344e-02f,+9.27939937e-02f,
+1.54181644e-01f,-2.26799790e-02f,+1.73881918e-01f,+7.58570619e-03f,+8.81547481e-02f,
+5.30420542e-02f,-8.39570910e-02f,+8.43462199e-02f,+8.01201835e-02f,-1.17772289e-01f,
-2.42905766e-01f,+1.58345431e-01f,+5.30759059e-02f,+1.20262824e-01f,+1.77287102e-01f,
-1.24962434e-01f,+8.91153440e-02f,+1.50189757e-01f,-6.26762956e-02f,-7.35520273e-02f,
-5.62576577e-02f,+1.18653156e-01f,+1.77012488e-01f,-1.96113735e-01f,-1.11323565e-01f,
-6.79498762e-02f,-4.92841788e-02f,-1.13141119e-01f,+1.34370580e-01f,-1.66366890e-01f,
+1.58144817e-01f,-5.24487086e-02f,+1.06969878e-01f,+7.13205189e-02f,+1.43741935e-01f,
+1.29394487e-01f,+1.90447956e-01f,-1.17758662e-02f,-1.66466534e-01f,+1.35300681e-01f,
+1.10020772e-01f,+1.97074324e-01f,+1.03829727e-01f,+2.92544323e-03f,-1.44287562e-02f,
+8.92495811e-02f,-1.50793359e-01f,+1.34369969e-01f,-6.44406453e-02f,+1.96407080e-01f,
+5.87989762e-02f,-3.34575474e-02f,+5.12504429e-02f,-2.91890830e-01f,+1.06028795e-01f,
-8.79984871e-02f,-1.84844449e-01f,-1.42782018e-01f,+6.35971054e-02f,-3.00472267e-02f,
-1.76401660e-01f,-1.43560201e-01f,+2.58303601e-02f,+7.21230581e-02f,+1.64413750e-01f,
+5.76762445e-02f,+2.28716418e-01f,+2.42050350e-01f,+1.93854973e-01f,-1.68209523e-01f,
-2.38113087e-02f,+6.57573640e-02f,-1.12997480e-01f,+7.17834607e-02f,-1.13716200e-01f,
+2.61556893e-03f,-7.61530846e-02f,+4.91583385e-02f,+8.70447326e-03f,+1.16704339e-02f,
-1.70821205e-01f,+9.47592780e-02f,+9.83284041e-02f,-1.45982683e-01f,-1.99845299e-01f,
-3.09032351e-02f,-3.65242158e-04f,+7.90940002e-02f,-8.26913789e-02f,+2.22368650e-02f,
+2.23606024e-02f,-7.81608224e-02f,+1.20933712e-01f,+3.91950458e-03f,-8.30303431e-02f,
+1.88831314e-01f,+1.96720898e-01f,+1.45838484e-02f,+2.48161331e-01f,+6.09812215e-02f,
-1.26977801e-01f,+9.08556208e-02f,+3.65342461e-02f,+1.67249680e-01f,-1.03867844e-01f,
+1.46519363e-01f,+1.67401165e-01f,-1.65737569e-02f,+1.25810862e-01f,-1.66068032e-01f,
+1.39312506e-01f,+1.46914691e-01f,+2.52657384e-02f,-4.14705575e-02f,+6.65909052e-02f,
-9.62408185e-02f,-7.57014751e-03f,+6.54462874e-02f,-1.93433970e-01f,+1.24544621e-01f,
-5.42340428e-02f,-4.39101160e-02f,+5.47487438e-02f,-6.05710000e-02f,+2.83847749e-02f,
+2.33987272e-02f,-1.59021452e-01f,-1.14120670e-01f,-6.78107589e-02f,+1.27069563e-01f,
+9.19062495e-02f,-8.37941989e-02f,+2.39846259e-02f,+1.85649097e-01f,+1.76944941e-01f,
-7.48020411e-03f,-7.71707967e-02f,+1.86629072e-02f,+2.88577646e-01f,-3.49316970e-02f,
-4.93037283e-01f,+1.37693927e-01f,-2.37805441e-01f,+1.20613068e-01f,+5.01296699e-01f,
+2.02248767e-01f,+2.84674495e-01f,-2.39564940e-01f,-2.91506737e-01f,-1.63580164e-01f,
+2.68219896e-02f,+1.19805261e-01f,+2.21855432e-01f,+2.97751665e-01f,+1.36474639e-01f,
+7.93487579e-03f,+1.99398398e-01f,-9.47912112e-02f,+2.64655501e-01f,-1.09124124e-01f,
+2.23349519e-02f,+2.75688350e-01f,+4.61940259e-01f,+2.55074888e-01f,-3.44598383e-01f,
-8.11503455e-02f,+9.61434394e-02f,-9.52286795e-02f,-1.41128421e-01f,+1.45974830e-01f,
-2.35274911e-01f,+2.26302091e-02f,-5.56666553e-02f,+1.64552685e-02f,+1.71734706e-01f,
+1.75151125e-01f,+2.44806651e-02f,+5.70125319e-02f,+1.66187137e-01f,-4.70281467e-02f,
+2.16250375e-01f,+2.45453976e-02f,+6.16404153e-02f,+5.02712280e-02f,-5.93721345e-02f,
+4.02611271e-02f,-1.27118463e-02f,-1.69167489e-01f,+5.59773557e-02f,+6.70843152e-03f,
-5.61394654e-02f,+3.43085639e-02f,+1.95131123e-01f,+9.26231518e-02f,-1.50354095e-02f,
+5.38605452e-02f,-1.92441847e-02f,+8.95387083e-02f,-4.17052358e-01f,+1.17246779e-02f,
-2.96952426e-02f,-1.38238087e-01f,+6.15353882e-02f,+1.17288232e-02f,+3.30560207e-02f,
-1.59592792e-01f,+8.25481415e-02f,+1.82418257e-01f,+1.01238161e-01f,+9.30463374e-02f,
+1.88214779e-01f,+1.39692008e-01f,+1.19432569e-01f,-7.33218789e-02f,-1.70364380e-01f,
+1.14448607e-01f,+7.47902691e-02f,-2.73900032e-02f,+1.66639984e-01f,-1.82314724e-01f,
+7.09846020e-02f,-1.17148936e-01f,-1.42460197e-01f,-5.26063889e-02f,-2.68314779e-03f,
+9.19910967e-02f,-1.19775847e-01f,+3.63808274e-02f,+1.90217882e-01f,-3.48487794e-02f,
+1.05747730e-02f,-1.31091475e-02f,-1.14879400e-01f,+2.41589665e-01f,+4.35217433e-02f,
+3.50377001e-02f,-1.55367002e-01f,+4.84164171e-02f,+2.06993241e-02f,+3.30053538e-01f,
-1.82343200e-01f,+6.07516654e-02f,-1.58889115e-01f,+2.97820382e-02f,+1.10002682e-01f,
-3.64094853e-01f,+8.81060734e-02f,+1.79599345e-01f,-1.35305867e-01f,+1.95293665e-01f,
+1.90992132e-01f,+1.68558717e-01f,-1.07861862e-01f,-6.69691563e-02f,-2.12274089e-01f,
+6.36633113e-02f,+1.81381315e-01f,+1.20856948e-01f,+2.54577518e-01f,+1.18147396e-01f,
+1.65267527e-01f,-2.23070011e-01f,+5.09922532e-03f,+1.94526911e-02f,+1.35326266e-01f,
+5.50537407e-02f,-2.47514933e-01f,-5.85403480e-02f,+6.40014037e-02f,-1.34477437e-01f,
-8.43796879e-02f,-1.58929780e-01f,+2.26361617e-01f,-1.27343357e-01f,-6.85735941e-02f,
-4.56171595e-02f,+1.65205702e-01f,+7.17430338e-02f,+4.76510078e-02f,+1.24892744e-03f,
-3.91259138e-03f,-1.30730361e-01f,+1.17232256e-01f,+6.32149652e-02f,+8.99968743e-02f,
+1.87274069e-02f,+1.77417383e-01f,+1.22289680e-01f,+5.05804494e-02f,-1.23876832e-01f,
-2.08756402e-02f,-4.45359126e-02f,-1.55260131e-01f,+1.23505421e-01f,-8.21923986e-02f,
-1.71187371e-01f,-1.21961437e-01f,-4.94455639e-03f,+4.31344984e-03f,-1.99579932e-02f,
-1.46093160e-01f,+1.23885488e-02f,+3.69681828e-02f,-1.84986189e-01f,+1.23990647e-01f,
-9.78903994e-02f,+8.16121846e-02f,-1.10392228e-01f,-2.04014808e-01f,-3.82743143e-02f,
-3.83973941e-02f,-1.37178868e-01f,+1.10753909e-01f,-1.57025293e-01f,+3.90702374e-02f,
+1.28157794e-01f,+2.17365846e-01f,+1.80763509e-02f,+1.78823367e-01f,-6.19413741e-02f,
-4.05950621e-02f,+1.34363979e-01f,-1.14595048e-01f,-9.71764401e-02f,+2.13678226e-01f,
-2.92242295e-03f,+1.40264273e-01f,+1.71471268e-01f,-2.58336216e-02f,+1.04286820e-02f,
+1.85565531e-01f,-1.53679118e-01f,-7.90221542e-02f,-1.41922414e-01f,-1.58768535e-01f,
+8.56456459e-02f,+5.17234355e-02f,+1.33278996e-01f,+1.30558789e-01f,+3.61184925e-02f,
-1.84755534e-01f,+1.47059262e-02f,-1.69558451e-01f,+1.56395376e-01f,+1.75872594e-01f,
-8.57062638e-02f,-7.47039616e-02f,-1.10696234e-01f,+6.83748722e-03f,+1.35844976e-01f,
+1.38699442e-01f,-1.25130594e-01f,-2.05935240e-02f,-1.82316765e-01f,-6.35562837e-02f,
+6.89934194e-03f,+1.26621693e-01f,-1.01870365e-01f,+1.17468327e-01f,-1.01065904e-01f,
+4.08055708e-02f,+6.04294389e-02f,-1.88190416e-01f,+1.68376461e-01f,+1.11076392e-01f,
-9.86345932e-02f,-7.82261938e-02f,-1.00061201e-01f,-9.95324031e-02f,+1.51439548e-01f,
-1.32632673e-01f,+3.39951292e-02f,+1.95922293e-02f,-2.91655418e-02f,-1.07340358e-01f,
+1.76872775e-01f,-1.05402008e-01f,+1.16041303e-01f,+2.58137863e-02f,+1.07875399e-01f,
+7.47745484e-02f,-1.60756633e-01f,+1.15573674e-01f,-5.95397241e-02f,-1.52978733e-01f,
+2.42027506e-01f,-7.09332302e-02f,+1.14152685e-01f,-7.07390532e-02f,-1.44455567e-01f,
+7.12257326e-02f,+1.45626828e-01f,+3.10387760e-02f,+5.61205745e-02f,+5.58664650e-02f,
+6.13059402e-02f,+1.28611326e-02f,+9.79029834e-02f,-2.22842991e-02f,-1.59547508e-01f,
-2.26647705e-02f,+7.92433619e-02f,+1.43955499e-01f,+1.77470297e-01f,+1.75708711e-01f,
+1.89437300e-01f,+1.74948573e-01f,+6.71904683e-02f,-1.73878998e-01f,+6.38379455e-02f,
-1.47712350e-01f,-1.31295100e-01f,+1.04754269e-01f,-1.59965292e-01f,+3.86915207e-02f,
+3.26379538e-02f,+4.54808474e-02f,-7.98054263e-02f,+1.46188617e-01f,+8.73434246e-02f,
+1.13697797e-01f,+1.15640998e-01f,-5.39425313e-02f,-1.41982570e-01f,+1.58111498e-01f,
+3.97486724e-02f,-1.57273784e-01f,-1.74252555e-01f,+7.19470754e-02f,+1.40455261e-01f,
+9.44068134e-02f,+4.00603972e-02f,+1.72652602e-01f,-4.72727418e-02f,-2.07898580e-02f,
-2.16005325e-01f,+1.59114778e-01f,-1.05033759e-02f,+7.23153949e-02f,-1.64760694e-01f,
+1.42208651e-01f,+7.80904964e-02f,-1.87185302e-01f,-1.80893898e-01f,+1.80247992e-01f,
+9.75991562e-02f,-7.84894228e-02f,+1.34663314e-01f,+1.51757717e-01f,+5.82003258e-02f,
+1.56731769e-01f,-1.52370766e-01f,+2.23932788e-01f,+1.98714539e-01f,+2.09135953e-02f,
-1.46919876e-01f,-7.40985647e-02f,+2.80166771e-02f,+1.28234968e-01f,+2.22662147e-02f,
-3.47093940e-02f,+9.70361158e-02f,+3.33223529e-02f,+1.74670011e-01f,+3.99428830e-02f,
+1.24429502e-01f,+2.22450987e-01f,+1.91885028e-02f,-1.70382291e-01f,+9.31033567e-02f,
-9.79443267e-02f,+1.47585049e-01f,+8.15380067e-02f,+4.07786779e-02f,+1.52313188e-01f,
-2.10522264e-01f,+1.28689051e-01f,+1.53437153e-01f,-1.49409929e-02f,+1.00920849e-01f,
-3.35576087e-02f,+1.17856473e-01f,-8.55421498e-02f,+8.20088908e-02f,+2.10443184e-01f,
-2.27330372e-01f,-3.75543945e-02f,+1.00980386e-01f,+1.82877481e-01f,+6.40567541e-02f,
-1.43451363e-01f,+1.75736099e-02f,+3.49694788e-02f,-7.51492232e-02f,-1.53161198e-01f,
-3.26126069e-02f,+1.78793281e-01f,-1.87045857e-01f,+2.67260820e-02f,-1.33196175e-01f,
+1.64061308e-01f,-2.03800797e-02f,+2.48334557e-02f,+6.94251359e-02f,-1.41192526e-02f,
-2.56188363e-02f,-2.16163993e-02f,+7.26014078e-02f,-1.68060243e-01f,-2.94078439e-02f,
+1.77616656e-01f,+1.59088820e-01f,-2.16983259e-03f,+1.11102343e-01f,-3.85931283e-02f,
+1.73229724e-01f,-7.41082355e-02f,+7.38097429e-02f,-1.62015870e-01f,+1.72243774e-01f,
+1.20186627e-01f,-2.80909687e-01f,+3.16163152e-01f,+5.29715009e-02f,-2.41425425e-01f,
+1.10745601e-01f,-1.45727575e-01f,+1.51967525e-01f,+1.04241863e-01f,+5.01898937e-02f,
+1.46566004e-01f,-2.35004481e-02f,-2.48426676e-01f,-1.57084212e-01f,-2.08044395e-01f,
+2.66736239e-01f,-1.39703199e-01f,+1.75847813e-01f,+2.11215183e-01f,+1.60619721e-01f,
+1.95042416e-01f,-1.17191514e-02f,+1.66780725e-01f,-6.88645290e-03f,-2.67477244e-01f,
+2.47399703e-01f,-2.67192777e-02f,+3.55662480e-02f,-8.31325725e-02f,+1.83273852e-02f,
+3.93060952e-01f,-3.87641229e-02f,+5.41754067e-03f,+3.93199772e-02f,+1.89328045e-02f,
+1.25299722e-01f,+9.91399586e-03f,-1.61111176e-01f,-8.21436346e-02f,+1.43883675e-02f,
+1.27266943e-01f,+8.47008824e-02f,+1.53249919e-01f,+1.31283462e-01f,+1.73096329e-01f,
+1.55811518e-01f,+1.71315372e-02f,+2.56336182e-02f,+1.38452947e-01f,+2.32401341e-02f,
-9.85591784e-02f,+1.22229517e-01f,+6.80960715e-02f,-5.34948707e-02f,-6.68854713e-02f,
-3.43929529e-02f,-7.11682066e-02f,-9.00804177e-02f,+1.38487816e-01f,+1.66814268e-01f,
-1.23621263e-01f,+5.22799641e-02f,-1.70668602e-01f,+3.21838260e-02f,-4.12685750e-03f,
+1.73262045e-01f,+1.35491103e-01f,-5.38836829e-02f,+5.36019579e-02f,-9.33721587e-02f,
+6.77176565e-02f,-1.05813920e-01f,+1.65463239e-01f,+1.15720239e-02f,+1.78319439e-01f,
-8.51045772e-02f,+1.57433853e-01f,+1.52532712e-01f,+6.55762479e-02f,+1.86820045e-01f,
+1.48752213e-01f,+5.83903193e-02f,-3.12075447e-02f,-4.12599109e-02f,+1.55190825e-01f,
+1.30152479e-01f,+1.75329015e-01f,+1.01490013e-01f,-3.10875066e-02f,-4.69597504e-02f,
-4.69969288e-02f,-2.67905798e-02f,+3.45289409e-02f,+1.94111705e-01f,-5.81535958e-02f,
-1.15911543e-01f,+8.81976783e-02f,-1.38805553e-01f,+6.94717169e-02f,-7.29121268e-02f,
-1.85770705e-01f,-7.61778802e-02f,+1.90914690e-01f,+7.34195113e-04f,-1.57172084e-01f,
+1.12885863e-01f,+8.41682255e-02f,+3.75498384e-02f,-9.62994099e-02f,-1.75018460e-01f,
+8.37803483e-02f,+1.69570684e-01f,+8.25818181e-02f,-1.59092039e-01f,+1.07270509e-01f,
-3.14833075e-02f,+5.35070598e-02f,+1.55334026e-01f,-1.66821525e-01f,-1.08072691e-01f,
-6.81952089e-02f,+9.23643708e-02f,-1.16249785e-01f,+1.46495938e-01f,-1.88091099e-02f,
+1.33643329e-01f,-1.25582635e-01f,-6.95431307e-02f,+1.27789080e-02f,-3.94106656e-02f,
-1.00831412e-01f,+4.85828370e-02f,+1.44259512e-01f,+1.89322114e-01f,+3.30343693e-02f,
+9.09636319e-02f,-3.56853753e-02f,+1.83068454e-01f,+2.67848521e-02f,+9.57496166e-02f,
-9.47866589e-02f,-1.76341385e-02f,-5.80212474e-02f,+2.04789191e-02f,+4.62180376e-02f,
-4.52288985e-02f,+8.76525044e-02f,-1.55380368e-02f,-3.00937295e-02f,-1.58597291e-01f,
+1.92708045e-01f,-7.70888105e-02f,+1.85764015e-01f,+1.95168406e-02f,-1.86891109e-01f,
+3.76524329e-02f,-7.42105991e-02f,+9.00093913e-02f,-1.93376720e-01f,+9.63511765e-02f,
-1.40573636e-01f,-1.98217019e-01f,-4.07041088e-02f,-1.23053432e-01f,-2.36223489e-01f,
-2.00037032e-01f,-1.39126778e-01f,-6.52252957e-02f,-2.18909204e-01f,-9.27179754e-02f,
+7.11780936e-02f,+5.65312132e-02f,-3.41949731e-01f,-5.95990159e-02f,-1.49507388e-01f,
+4.00074832e-02f,-2.40425691e-01f,-1.29639879e-01f,-3.44582275e-03f,+2.39508636e-02f,
-3.73545706e-01f,-6.58901557e-02f,+7.50309452e-02f,-4.83108401e-01f,-4.91934046e-02f,
+1.36452198e-01f,+2.36490071e-01f,+3.16162437e-01f,-1.78043991e-01f,-1.82177380e-01f,
-2.33676195e-01f,+1.31246716e-01f,+2.07614731e-02f,-3.61106098e-02f,+3.14400308e-02f,
+1.62974238e-01f,-7.70544037e-02f,-2.10673898e-01f,+3.18723768e-02f,+1.86611935e-01f,
+1.61501870e-01f,-1.29400343e-01f,+1.46067992e-01f,-1.57987975e-04f,-9.76592228e-02f,
+5.44906706e-02f,-1.60116196e-01f,+8.14068541e-02f,+2.17664376e-01f,+1.59714937e-01f,
-1.82364970e-01f,+4.41532284e-02f,+6.36886060e-02f,-1.08964130e-01f,+1.86662227e-01f,
+8.11211616e-02f,+1.42488852e-01f,-9.21185985e-02f,-8.69238675e-02f,+2.27241162e-02f,
+1.27480909e-01f,-2.76638642e-02f,-7.02210367e-02f,-1.80934489e-01f,-9.21493620e-02f,
+3.72680336e-01f,-2.49448702e-01f,+6.15850873e-02f,+5.08443266e-02f,-1.03932321e-01f,
-9.50425863e-02f,+4.98046391e-02f,-1.56656951e-01f,+1.47952691e-01f,+4.54623029e-02f,
+5.56470640e-02f,+1.88363448e-01f,-2.07379591e-02f,+3.64110246e-02f,-1.89734995e-02f,
-1.95713252e-01f,+9.83070768e-03f,+2.51975417e-01f,+2.41492279e-02f,+1.10595532e-01f,
-2.99935013e-01f,-4.02803682e-02f,+8.20407867e-02f,+2.56372929e-01f,-1.08890064e-01f,
-1.17462166e-01f,-8.02072361e-02f,+4.18405272e-02f,-1.72712039e-02f,-7.90218264e-02f,
-6.75339624e-02f,-1.11762024e-01f,+1.12028688e-01f,+5.54579757e-02f,-1.16421454e-01f,
-1.01507962e-01f,+7.03343749e-02f,+7.49614537e-02f,-1.21849842e-01f,+1.12266382e-02f,
-1.39462829e-01f,-1.18056640e-01f,-6.20408058e-02f,+1.05674699e-01f,-1.19164683e-01f,
+8.40233564e-02f,+2.91595552e-02f,+9.56588089e-02f,-9.30950046e-02f,-5.03877364e-02f,
+8.45278949e-02f,+1.51520789e-01f,+2.22966596e-02f,+7.36863315e-02f,+1.89892232e-01f,
+1.43335924e-01f,+1.41635733e-02f,+1.30674556e-01f,+3.75231281e-02f,-1.19097112e-03f,
+9.44823176e-02f,-6.13559596e-02f,+1.68257982e-01f,+5.14072105e-02f,-2.19030514e-01f,
-1.68876380e-01f,+3.20393108e-02f,-6.71802819e-01f,-2.21086144e-01f,-7.67358020e-02f,
+3.48434627e-01f,+6.44871891e-02f,-2.97533631e-01f,+1.22494653e-01f,-1.65863439e-01f,
+6.18900396e-02f,-2.83789366e-01f,+1.98477969e-01f,-3.34256925e-02f,-4.10214931e-01f,
-5.29603027e-02f,+2.59967864e-01f,+6.65751249e-02f,-2.58000106e-01f,-1.04397712e-02f,
+8.41155872e-02f,-1.21691905e-01f,+8.18453636e-03f,+4.13842738e-01f,+3.26171964e-01f,
+1.37315497e-01f,-3.53075922e-01f,-3.45229000e-01f,+1.01251990e-01f,-1.11250751e-01f,
-1.56599209e-01f,-1.03030004e-01f,-1.37162000e-01f,+1.26123607e-01f,-1.57570556e-01f,
+6.50027320e-02f,-3.60625573e-02f,-6.62896261e-02f,+1.22376591e-01f,+1.69307977e-01f,
+3.23216468e-02f,-1.40098900e-01f,+9.03035849e-02f,-1.89379901e-01f,+4.41398891e-03f,
+1.08226284e-01f,-6.81215152e-02f,-1.00804893e-02f,-3.16163301e-02f,-1.18928179e-01f,
-1.36999026e-01f,-1.81494951e-01f,-7.49358982e-02f,-1.54325396e-01f,+4.67265397e-02f,
+1.54522687e-01f,+2.05859989e-01f,-2.70364452e-02f,-4.27511856e-02f,+6.13329560e-02f,
+9.96206328e-02f,-1.15345135e-01f,-2.46592630e-02f,-2.54529621e-02f,+2.54642218e-01f,
-5.80713786e-02f,-2.42752299e-01f,+5.35458699e-02f,-1.46519631e-01f,-1.66519448e-01f,
-1.19448647e-01f,-2.04330653e-01f,+1.33849978e-01f,-8.55599195e-02f,-3.93863112e-01f,
-1.86480641e-01f,-9.15728435e-02f,+9.94784907e-02f,+9.92061198e-02f,+1.26239195e-01f,
+1.50986552e-01f,+1.39748603e-01f,-1.26128435e-01f,+2.41866454e-01f,+2.31744144e-02f,
-6.42822534e-02f,-2.12173387e-01f,+1.99881926e-01f,+9.00917947e-02f,+1.28982931e-01f,
+1.17834896e-01f,+1.36088029e-01f,+1.68772981e-01f,-1.24770485e-01f,-8.65644068e-02f,
-1.28031835e-01f,-7.27017643e-04f,-1.65166229e-01f,+1.84924096e-01f,-4.38792221e-02f,
+1.81337669e-01f,+5.10359779e-02f,+1.79737225e-01f,+7.05292895e-02f,-1.19450070e-01f,
-1.50797680e-01f,+9.83834490e-02f,-7.88275748e-02f,+1.18390322e-01f,-8.81956592e-02f,
+1.53868884e-01f,+1.62852302e-01f,-1.90269887e-01f,-9.84246954e-02f,+1.12490714e-01f,
+8.29710886e-02f,+1.67189956e-01f,-7.59840980e-02f,+1.39073208e-01f,-1.32963389e-01f,
+5.97145073e-02f,-2.04364315e-01f,-1.12066373e-01f,+1.05214365e-01f,-7.09144920e-02f,
-1.19074777e-01f,-9.13865194e-02f,+3.61444056e-01f,-9.80118662e-02f,-1.25298407e-02f,
-1.04692556e-01f,-5.92322461e-02f,-1.11757450e-01f,+1.75019577e-01f,+6.33916957e-03f,
-6.58689067e-02f,+1.37021452e-01f,-1.46113828e-01f,-1.19552433e-01f,+4.42532673e-02f,
-1.05552852e-01f,+8.29083100e-03f,+4.69482057e-02f,-9.40980017e-02f,+3.04434359e-01f,
-5.28220832e-03f,-6.83224276e-02f,+1.43165588e-01f,+5.14536491e-03f,+2.00965852e-01f,
-1.28470575e-02f,-7.84266293e-02f,+2.04770312e-01f,-6.25020340e-02f,+1.82007417e-01f,
+6.75521120e-02f,-3.59315686e-02f,-1.04475401e-01f,-2.03154042e-01f,+4.72879484e-02f,
+2.62425304e-03f,-1.79645196e-01f,-7.29301188e-04f,+1.69914857e-01f,-8.12572017e-02f,
+1.13420337e-01f,-9.39566791e-02f,-5.74636161e-02f,+6.26877770e-02f,+1.29463121e-01f,
-4.25774492e-02f,+1.21673293e-01f,-1.46969274e-01f,-5.08066826e-02f,-5.24568073e-02f,
-1.66622475e-02f,+1.87640518e-01f,-8.25884640e-02f,-7.01260343e-02f,-2.08118871e-01f,
-6.13678759e-03f,+3.03264391e-02f,+8.57197493e-02f,-5.95887415e-02f,-1.20012425e-01f,
+8.04499909e-02f,-3.66154760e-02f,+6.64786398e-02f,+1.29047066e-01f,-7.96081051e-02f,
-7.31705576e-02f,+1.92014232e-01f,+3.48919677e-03f,+1.83425680e-01f,+1.26901999e-01f,
+1.31595492e-01f,+2.73143928e-02f,+1.43720508e-01f,-1.00843772e-01f,+1.03410497e-01f,
-7.90520310e-02f,+8.96257237e-02f,+1.03793174e-01f,-2.05324707e-03f,+7.21408203e-02f,
-7.77598470e-02f,+1.15142372e-02f,-1.52364001e-01f,-1.63616195e-01f,-1.33725137e-01f,
-3.07466704e-02f,+5.16789546e-03f,-1.18633471e-01f,+7.64289172e-04f,-1.41364977e-01f,
+1.73993304e-01f,-2.19931565e-02f,+7.88902268e-02f,+2.35098507e-02f,-1.21848725e-01f,
-1.47731781e-01f,-5.18219769e-02f,+3.61292772e-02f,+1.22027636e-01f,+6.82034865e-02f,
+3.24817561e-02f,-5.54240346e-02f,+5.68548553e-02f,-1.19476020e-01f,+6.56957552e-02f,
-1.96997166e-01f,-1.57514364e-01f,+3.14067528e-02f,-1.99675918e-01f,+2.70398967e-02f,
-1.65781692e-01f,-8.23740214e-02f,-1.30427912e-01f,+7.23507255e-02f,+1.29565313e-01f,
+9.66936201e-02f,-2.12317079e-01f,+1.16998650e-01f,-1.41660810e-01f,-1.42995372e-01f,
+6.46617636e-02f,+2.04851869e-02f,-1.00581735e-01f,-3.72413620e-02f,+1.11338802e-01f,
+2.02597305e-01f,+7.29602575e-02f,-2.82615155e-01f,+1.75927192e-01f,+1.69812113e-01f,
+1.71749979e-01f,+1.59658581e-01f,+1.68313175e-01f,-3.20427865e-02f,+3.72877866e-02f,
-2.75808573e-02f,+8.15988481e-02f,-1.78250834e-01f,+8.41885209e-02f,+1.25644922e-01f,
-5.59901893e-02f,-6.31922781e-02f,-1.37417167e-02f,+1.71346933e-01f,-3.13552320e-02f,
-1.83280915e-01f,-1.86808005e-01f,-1.40038610e-01f,-8.98797587e-02f,+1.58714175e-01f,
-1.90715045e-01f,+1.02397203e-01f,-9.13953707e-02f,-1.09083392e-01f,-4.26992327e-02f,
-2.70265937e-02f,+1.50166392e-01f,+1.40593290e-01f,-1.51049808e-01f,-1.41743273e-01f,
+1.22787207e-01f,+2.30321884e-02f,-1.07611716e-03f,-1.55769765e-01f,+1.46629065e-01f,
-8.09834376e-02f,-1.02753170e-01f,-1.75660729e-01f,-6.71753734e-02f,+3.28227729e-02f,
+7.02923238e-02f,+1.79332495e-01f,+8.33245516e-02f,-1.09577216e-01f,-1.53737530e-01f,
+1.50387406e-01f,+3.00629437e-02f,-1.63681433e-01f,+6.19212389e-02f,+7.41353333e-02f,
+1.80447727e-01f,-1.18508860e-01f,+1.60496205e-01f,+1.10715032e-02f,-2.57430822e-02f,
-1.63844049e-01f,-1.03889219e-01f,+1.44406527e-01f,-1.16002224e-01f,-1.81310594e-01f,
+7.56938756e-02f,+1.68277860e-01f,+6.69971108e-04f,-1.53743446e-01f,+7.76253790e-02f,
+1.07897148e-01f,-4.96220477e-02f,+1.92469999e-01f,-3.67725864e-02f,+4.92405593e-02f,
+1.04715794e-01f,-3.14861611e-02f,+1.01917855e-01f,-1.12518683e-01f,+1.13402374e-01f,
-1.03811122e-01f,+8.75540301e-02f,-1.18073173e-01f,-1.08278684e-01f,+9.54868197e-02f,
+4.40250561e-02f,-1.44879460e-01f,-1.24820344e-01f,-7.39931595e-03f,+2.21169516e-02f,
+7.42240846e-02f,-6.75902963e-02f,+4.47085202e-02f,+1.04833581e-01f,+1.83616459e-01f,
+1.35216251e-01f,+1.44904912e-01f,+3.06260698e-02f,+1.07112139e-01f,-1.54559404e-01f,
+4.54717457e-01f,-8.23505782e-03f,+6.07120454e-01f,+3.96825187e-02f,+4.57154885e-02f,
+1.83948465e-02f,+6.33787096e-01f,+1.66909069e-01f,-2.99187470e-02f,+1.45189643e-01f,
+7.63298869e-02f,+5.72321154e-02f,+5.16239144e-02f,+3.20573598e-01f,+1.12167582e-01f,
+1.14893384e-01f,+3.67151573e-03f,+7.21490458e-02f,+5.47350764e-01f,-6.82585090e-02f,
+9.22031850e-02f,+9.42627564e-02f,-1.46439776e-01f,+2.73470134e-01f,-2.94442363e-02f,
+1.63068548e-01f,+1.40363976e-01f,+1.09265998e-01f,+1.87241033e-01f,-7.55837336e-02f,
+1.58668771e-01f,-1.15600266e-02f,-9.12273079e-02f,+1.40461475e-01f,+8.68420005e-02f,
+2.11332738e-01f,+9.99651849e-02f,+2.86111198e-02f,+1.52024999e-01f,-1.45397261e-01f,
-9.21710655e-02f,+5.48304729e-02f,-1.08022325e-01f,+1.15318000e-01f,+1.26540199e-01f,
+1.76840961e-01f,-3.13322619e-02f,+6.09191805e-02f,+5.19672148e-02f,+2.24272802e-01f,
-9.26858857e-02f,+8.13932419e-02f,-2.67815590e-02f,+1.18726954e-01f,-7.69206285e-02f,
+1.33098274e-01f,-1.02318846e-01f,-6.25552535e-02f,+8.51543322e-02f,-9.54250619e-02f,
-9.53027830e-02f,-7.58978352e-02f,+6.55744374e-02f,-1.40744016e-01f,+1.63195670e-01f,
+1.26958713e-01f,+3.21524069e-02f,+1.15179658e-01f,+1.23795150e-02f,+1.58258811e-01f,
+1.34666592e-01f,+8.26336741e-02f,+9.86802280e-02f,-7.26653785e-02f,-1.37471840e-01f,
-8.87536630e-02f,-1.88354049e-02f,-1.14315405e-01f,+1.64314285e-01f,+2.57790033e-02f,
-6.23997592e-04f,+1.89917177e-01f,-3.08843213e-03f,+1.05873361e-01f,-6.34260662e-03f,
-5.56719564e-02f,-5.04552014e-03f,+1.08194323e-02f,+8.46366361e-02f,-7.01993927e-02f,
+2.46805064e-02f,+1.08637922e-01f,-1.63813874e-01f,+1.51797459e-01f,-6.88170120e-02f,
+8.28336850e-02f,+2.06377938e-01f,+2.24353373e-01f,-1.23285361e-01f,-5.94619736e-02f,
+1.48201287e-01f,+9.43633169e-02f,+2.41802596e-02f,+1.33767501e-02f,+6.39223084e-02f,
+4.31198142e-02f,+1.16780378e-01f,+1.58037663e-01f,+9.51927081e-02f,-1.14971630e-01f,
-1.20542057e-01f,+1.12845041e-01f,-4.34497409e-02f,+3.10936030e-02f,+1.47017138e-02f,
+1.60121232e-01f,-1.33791596e-01f,-7.11210817e-02f,+1.41620815e-01f,-1.13305561e-02f,
+1.29487738e-01f,+4.65830490e-02f,+1.91280186e-01f,-9.44956020e-02f,-2.76564825e-02f,
-9.82388929e-02f,-1.20304517e-01f,-1.30076304e-01f,-7.04180822e-02f,+2.42127344e-01f,
+1.32561535e-01f,+8.66039172e-02f,+1.39634743e-01f,-1.22782327e-01f,-9.23639815e-03f,
+1.62191037e-02f,-1.26812384e-01f,-1.39425144e-01f,+1.91483885e-01f,+1.49857715e-01f,
-4.44886126e-02f,+2.12827459e-01f,-1.36464328e-01f,+1.60675287e-01f,-1.22315742e-01f,
-2.23701540e-02f,+1.43994883e-01f,-1.75924048e-01f,+9.58902463e-02f,-1.44609436e-01f,
+2.35561095e-02f,-7.03533590e-02f,-9.77997575e-03f,+1.58540711e-01f,+9.44970828e-03f,
-1.01310380e-01f,+5.60248122e-02f,-5.34833744e-02f,-1.20749854e-01f,+2.00920165e-01f,
+1.14905864e-01f,+2.03110814e-01f,+1.33793876e-01f,+4.67341505e-02f,+2.64706194e-01f,
-9.85648781e-02f,-2.60088500e-02f,+1.65836811e-01f,-5.19689061e-02f,+7.05911592e-03f,
+8.69089663e-02f,+1.46033645e-01f,+2.54957397e-02f,+1.99231043e-01f,+9.53745022e-02f,
-1.35883912e-02f,+8.13356489e-02f,+6.92034662e-02f,+4.42890450e-02f,-1.19717922e-02f,
-1.11001149e-01f,-1.60363227e-01f,-1.15076210e-02f,+1.62014708e-01f,+1.82616323e-01f,
-8.81816819e-02f,-9.08285603e-02f,-1.16174929e-01f,-1.76220667e-02f,+2.06258431e-01f,
+2.08849888e-02f,-3.29669528e-02f,+1.28032982e-01f,+2.41241064e-02f,-2.90886406e-02f,
+7.57677713e-03f,-1.22739188e-01f,+3.77117260e-03f,-2.38568499e-03f,+3.51108685e-02f,
+1.57212377e-01f,+1.08720407e-01f,-8.08149725e-02f,+9.76837501e-02f,-7.69709647e-02f,
+2.11086988e-01f,+7.01267868e-02f,+1.39893115e-01f,+4.30500992e-02f,+1.62638411e-01f,
-1.55360222e-01f,-5.29224984e-03f,-1.60512645e-02f,+1.15242608e-01f,+1.02220587e-01f,
-4.45445925e-02f,-1.44923761e-01f,-4.79963720e-02f,+1.68434650e-01f,-1.05283968e-02f,
-5.49801290e-02f,-1.16271988e-01f,+9.67144147e-02f,-1.12517148e-01f,+6.18657470e-02f,
-1.44568533e-01f,-2.41002738e-02f,-7.97653049e-02f,+1.61971182e-01f,-1.06810465e-01f,
+9.00259018e-02f,-3.72364819e-02f,+7.21197128e-02f,+1.23162210e-01f,-1.07430562e-01f,
-1.70936987e-01f,+1.23680741e-01f,+1.12564802e-01f,+1.37662292e-01f,+1.35982573e-01f,
+6.07777834e-02f,+1.16023958e-01f,+7.75672495e-02f,+5.88233769e-02f,+2.28688419e-02f,
-1.64113209e-01f,+1.70991242e-01f,+1.90375835e-01f,+7.49270022e-02f,-3.82086784e-02f,
+9.45670307e-02f,+1.25787556e-02f,-2.07412988e-02f,+1.98052675e-02f,+1.18977576e-01f,
-5.77754378e-02f,+1.14108689e-01f,-8.34179744e-02f,+5.88009506e-02f,+1.70296371e-01f,
+2.36718804e-01f,+1.98534086e-01f,-7.04199001e-02f,+1.43125057e-01f,-3.32031399e-03f,
-1.09946795e-01f,+6.53675273e-02f,-3.24020237e-02f,+1.35154903e-01f,+1.82896733e-01f,
+2.97972262e-02f,-7.14826733e-02f,-1.17298728e-02f,-9.06478520e-03f,+7.19067603e-02f,
-9.64205042e-02f,-1.63797542e-01f,+1.56070953e-02f,-7.78809786e-02f,+1.38997167e-01f,
-2.61858869e-02f,+1.83435678e-01f,-4.24590223e-02f,+3.04739047e-02f,-1.08275097e-02f,
-6.96551129e-02f,-6.50319830e-02f,+1.89668052e-02f,-1.37664573e-02f,-3.48128751e-02f,
+1.04346998e-01f,-8.80021527e-02f,+2.05144703e-01f,+1.65823758e-01f,-6.10104315e-02f,
+1.41326532e-01f,+9.37068611e-02f,-1.02597021e-01f,+4.51676287e-02f,-1.16183795e-01f,
+1.98068723e-01f,-5.63122667e-02f,-1.64399035e-02f,+1.04638554e-01f,-9.22546759e-02f,
-1.12287745e-01f,-4.70623896e-02f,-5.23848012e-02f,+2.43991129e-02f,+1.83038667e-01f,
-6.66733310e-02f,+1.65140390e-01f,-1.88648067e-02f,+5.50052784e-02f,+1.06184535e-01f,
-1.51144475e-01f,-6.39174506e-02f,+1.89922526e-01f,+1.83813184e-01f,+1.88643426e-01f,
-1.63373813e-01f,-7.41433278e-02f,+1.38504237e-01f,-1.74002051e-02f,+8.19877088e-02f,
-1.74584687e-02f,+9.42160189e-02f,+8.24676156e-02f,-1.20529383e-02f,-2.85009742e-02f,
+1.21545851e-01f,-4.64497507e-03f,-1.71467558e-01f,-6.74437582e-02f,-1.62224591e-01f,
-2.28508860e-02f,-7.77980611e-02f,-1.16043404e-01f,-9.23121125e-02f,-1.68120727e-01f,
+1.59851670e-01f,+1.86395645e-03f,+8.80581439e-02f,-6.24487102e-02f,+6.85127079e-02f,
+9.59379971e-03f,-8.72118548e-02f,+1.03608847e-01f,-1.00402124e-01f,+3.26154232e-02f,
-1.27500519e-01f,-9.27327201e-02f,+2.32480586e-01f,-1.43857405e-01f,+1.57607630e-01f,
-7.58376718e-02f,+1.37764409e-01f,-1.62858926e-02f,+1.43317832e-02f,+1.80836886e-01f,
-9.10178795e-02f,+2.10343808e-01f,+2.51240134e-01f,-3.09199989e-01f,-4.53054272e-02f,
+8.91529471e-02f,+1.02412261e-01f,+2.05077097e-01f,+5.09233810e-02f,+2.24304385e-02f,
+2.45392606e-01f,-6.53852746e-02f,+1.48560584e-01f,-1.32936001e-01f,-9.26053822e-02f,
+2.01716468e-01f,+1.49695203e-01f,+5.10478541e-02f,-1.57868236e-01f,-2.09957138e-01f,
+1.45622566e-01f,+9.21667740e-02f,-6.97370097e-02f,+2.00579226e-01f,+2.97931507e-02f,
+1.17104582e-01f,+1.22074001e-02f,+1.04310542e-01f,+1.89650040e-02f,+2.05686688e-01f,
-1.27021194e-01f,+4.81375456e-02f,+8.11305791e-02f,-1.47475868e-01f,+2.01393604e-01f,
+2.91460231e-02f,-9.71288234e-02f,+4.20164280e-02f,+4.53908853e-02f,+5.57116084e-02f,
-2.68481392e-02f,+4.32524681e-02f,+7.38322064e-02f,-3.91244330e-02f,-6.01485446e-02f,
-6.66958317e-02f,+8.33618268e-02f,+3.84501256e-02f,-1.27907723e-01f,-1.92385584e-01f,
-4.07489985e-02f,+1.87028706e-01f,+1.62065268e-01f,-5.89074977e-02f,-5.26725054e-02f,
+1.46679014e-01f,+2.27868825e-01f,+1.03681177e-01f,+1.34764612e-01f,-5.21690212e-02f,
+2.41854414e-01f,-1.39556855e-01f,-8.82793665e-02f,+9.16845426e-02f,-9.40318555e-02f,
-8.57880281e-04f,+1.32523328e-01f,+1.37636140e-01f,+3.18018869e-02f,-1.09884501e-01f,
-9.69626233e-02f,+1.43491715e-01f,+7.37551004e-02f,+2.08573565e-01f,-1.77576812e-03f,
-1.66041374e-01f,-1.08149268e-01f,+4.98218723e-02f,+1.67445168e-01f,+8.78292397e-02f,
+3.54972444e-02f,-3.10030412e-02f,+2.01176256e-01f,-1.45398140e-01f,-4.98796673e-03f,
-3.17969322e-02f,-5.80143332e-02f,+1.89944822e-02f,+1.78654715e-01f,+1.82803690e-01f,
+6.23294488e-02f,+1.95071362e-02f,+1.08255006e-01f,-5.05236834e-02f,+1.19836107e-01f,
-5.40899001e-02f,+5.69049791e-02f,+4.55442816e-02f,-5.32637462e-02f,-1.47617593e-01f,
+2.07302764e-01f,-5.09059019e-02f,+5.32446653e-02f,-1.50183678e-01f,+1.10144764e-01f,
+2.67534330e-02f,-1.08104341e-01f,+4.94867563e-02f,+9.13400128e-02f,+1.07508607e-01f,
+1.26562985e-02f,+1.07296884e-01f,+1.55276522e-01f,-4.51178849e-02f,+1.07309319e-01f,
-5.27300984e-02f,-1.49045780e-01f,-1.47620797e-01f,-6.05255626e-02f,-4.53009307e-02f,
-1.87634751e-02f,-7.43702427e-02f,-1.17273750e-02f,+1.47404283e-01f,+2.25028649e-01f,
-1.12200379e-01f,+1.24623768e-01f,+3.10871284e-02f,+1.20256916e-01f,-1.67497352e-01f,
+1.73300773e-01f,+3.23710181e-02f,+4.36117761e-02f,-2.53276490e-02f,+2.20708042e-01f,
+1.03789575e-01f,-1.62546545e-01f,+1.36944521e-02f,+1.08578332e-01f,+6.47717044e-02f,
+1.81382690e-02f,+4.48243357e-02f,+9.61170942e-02f,+6.73507852e-03f,+1.97485059e-01f,
-9.19197351e-02f,+1.03504099e-01f,-9.92160812e-02f,-5.88872023e-02f,+1.12890735e-01f,
-1.07377313e-01f,+4.33220528e-02f,+1.44270450e-01f,-1.47071391e-01f,+8.09803307e-02f,
+3.81505229e-02f,-1.36603922e-01f,+4.99853678e-02f,+1.17625281e-01f,-4.24736254e-02f,
-2.87625864e-02f,+5.81814684e-02f,-1.49775445e-01f,+1.10873729e-01f,-1.16883405e-01f,
+1.18563525e-01f,-3.23920473e-02f,+1.79558560e-01f,-3.89944911e-02f,+1.28414974e-01f,
+3.93280566e-01f,-9.72193033e-02f,-1.25068724e-01f,+1.87183231e-01f,-9.87031683e-02f,
+2.20689811e-02f,+2.08085477e-01f,+9.21978988e-03f,+1.28031671e-01f,-1.28029153e-01f,
-4.93800864e-02f,+8.01157728e-02f,+5.55286407e-02f,-1.25781551e-01f,+2.12135077e-01f,
-1.16211429e-01f,-8.65968242e-02f,+1.13739446e-01f,-2.16804482e-02f,-5.94050363e-02f,
-1.41834572e-01f,+6.06639199e-02f,-1.76004786e-02f,-1.13451272e-01f,+2.00575918e-01f,
+1.38463214e-01f,+1.08942561e-01f,+1.51956886e-01f,+6.58090934e-02f,+2.67900437e-01f,
+1.87213257e-01f,-2.22772732e-02f,-1.13082379e-02f,+6.58626407e-02f,-1.48094028e-01f,
+6.64839596e-02f,+2.19738334e-01f,+8.89040381e-02f,-6.33450374e-02f,+1.33046997e-03f,
+5.90613298e-02f,-8.62654485e-03f,+7.68446848e-02f,-1.28136292e-01f,+1.01584248e-01f,
-4.60095890e-02f,+1.02047384e-01f,-6.77244365e-02f,+2.30424970e-01f,+6.54420927e-02f,
-2.43438724e-02f,+1.16171375e-01f,-7.38335252e-02f,-1.81182146e-01f,-1.83037117e-01f,
+2.78077610e-02f,+1.23509869e-01f,+1.25082787e-02f,+1.30621180e-01f,+1.48015618e-01f,
+1.87354162e-01f,+9.70201343e-02f,+3.02968211e-02f,-9.58465785e-03f,+1.16307437e-01f,
-1.85052380e-01f,+8.68846755e-03f,+9.74228159e-02f,+6.44834936e-02f,+1.34094089e-01f,
+6.78665265e-02f,-1.74468532e-01f,+2.26460379e-02f,+1.97042301e-01f,+2.00411230e-01f,
+1.51377723e-01f,+2.48326182e-01f,-6.93235593e-03f,+2.16132894e-01f,+1.35184497e-01f,
+2.00068176e-01f,-1.01571821e-01f,-3.62557620e-02f,-1.41986124e-02f,+1.77078530e-01f,
-5.93557581e-02f,+3.37072201e-02f,+1.79219663e-01f,+2.01938838e-01f,+1.69747904e-01f,
+5.76740801e-02f,+3.66138853e-02f,+1.12851731e-01f,-1.28980115e-01f,+1.12561591e-01f,
+1.86726198e-01f,+9.29460302e-02f,-1.30800456e-01f,+6.93530142e-02f,-5.34518436e-02f,
-1.17949471e-01f,+1.39054343e-01f,+6.76482171e-02f,+8.05290416e-03f,-8.14591423e-02f,
+6.98129414e-04f,+6.03363700e-02f,-1.22107737e-01f,+1.35989547e-01f,+2.00137552e-02f,
+3.65173846e-01f,-7.13497773e-02f,+1.78508431e-01f,+4.04249765e-02f,+1.99865788e-01f,
-9.99128744e-02f,+2.44270682e-01f,+1.38676107e-01f,-1.85495064e-01f,+1.17568471e-01f,
+1.00557260e-01f,+1.31404117e-01f,+2.06424892e-01f,-1.24755748e-01f,+3.15199405e-01f,
+1.33543275e-02f,+1.70916617e-01f,+1.01197384e-01f,-8.33431333e-02f,+1.55116722e-01f,
+6.39984012e-03f,+1.29415646e-01f,+1.83627546e-01f,-5.51989190e-02f,-1.31278217e-01f,
+1.87158599e-01f,+5.07607870e-02f,+1.24205001e-01f,+5.20797037e-02f,+6.51835501e-02f,
+1.91839650e-01f,-1.19788095e-01f,+1.62569031e-01f,-1.66271940e-01f,+1.88370094e-01f,
+1.40775993e-01f,+1.67215273e-01f,+8.66481215e-02f,+2.84959823e-02f,+1.87822595e-01f,
-3.43804285e-02f,+5.03903590e-02f,-7.03803375e-02f,+3.81459184e-02f,-1.40560135e-01f,
-2.04798192e-01f,-1.83160916e-01f,+1.18598320e-01f,-2.99573522e-02f,-1.07888333e-01f,
+6.97096735e-02f,-7.50135630e-02f,+5.57082780e-02f,+1.28584743e-01f,+1.45128831e-01f,
-4.06749174e-02f,+1.71916574e-01f,-1.34323947e-02f,-1.57439753e-01f,+1.56091020e-01f,
+8.65684897e-02f,+1.62449941e-01f,-9.10475180e-02f,+1.55737400e-01f,-1.61794852e-02f,
+1.60922185e-01f,-1.66113123e-01f,-1.14375271e-01f,-8.25964510e-02f,-2.73119286e-03f,
+1.57919433e-02f,+5.28948866e-02f,+5.51564619e-02f,-1.22760728e-01f,-6.30070269e-02f,
+1.70515835e-01f,-3.86243463e-02f,-1.78173378e-01f,+1.32754266e-01f,-3.92384753e-02f,
+1.75704375e-01f,-1.04015484e-01f,+1.68873906e-01f,-9.34991762e-02f,+7.41753951e-02f,
-8.68114382e-02f,+3.14116105e-02f,-1.56881824e-01f,-4.78417240e-02f,+6.39709830e-03f,
-1.49092063e-01f,+4.86841984e-02f,-6.69850484e-02f,+1.52636185e-01f,-2.65791491e-02f,
-1.91856578e-01f,+2.51621753e-02f,+1.25613809e-03f,-5.45506775e-02f,-4.65283841e-02f,
+4.50680405e-02f,-1.17688522e-01f,-1.64380580e-01f,+5.53085506e-02f,-2.19543576e-02f,
+9.86340642e-02f,-1.52380466e-01f,-1.91226751e-01f,-4.82774377e-02f,+2.81955600e-02f,
-6.96894452e-02f,+4.00483608e-02f,-7.26767555e-02f,+1.24501616e-01f,-1.15231603e-01f,
+6.58071935e-02f,+5.63688874e-02f,-9.55722407e-02f,+1.09675944e-01f,-1.72861144e-01f,
+1.23011947e-01f,-1.74012154e-01f,-7.96973854e-02f,-1.59442425e-03f,-1.02931857e-02f,
+8.89450610e-02f,+1.09514564e-01f,-1.73619524e-01f,+1.89857602e-01f,-4.16538082e-02f,
-1.87219605e-01f,+6.08250163e-02f,-4.60224040e-02f,+8.43114555e-02f,-2.91730799e-02f,
-1.28536433e-01f,+8.04543197e-02f,+1.98766112e-01f,+5.92348806e-04f,+1.74637422e-01f,
+5.61610796e-02f,-4.39646393e-02f,-1.31003916e-01f,-8.95722508e-02f,-1.40872911e-01f,
+1.83301836e-01f,+8.28644186e-02f,-1.42273128e-01f,-5.61379828e-02f,-5.19660823e-02f,
-5.62486276e-02f,-2.87158322e-02f,+4.82132249e-02f,-7.53876716e-02f,-1.04139233e-02f,
-8.43259469e-02f,+8.53755325e-03f,+1.35968029e-01f,+9.28324461e-02f,+1.90084293e-01f,
-7.30985031e-02f,+1.29051775e-01f,+7.35887066e-02f,-7.40525797e-02f,+8.33976865e-02f,
-8.87424648e-02f,+4.18042876e-02f,-1.22064628e-01f,-6.03131726e-02f,+6.23715669e-02f,
-6.33093789e-02f,-1.17367432e-01f,-1.79556638e-01f,-6.26561567e-02f,+5.53605892e-02f,
+1.79794014e-01f,-5.37269935e-02f,+1.16720967e-01f,+2.56415755e-01f,-1.36568874e-01f,
+8.31938535e-02f,-7.34217837e-02f,+9.11024064e-02f,+1.42330304e-01f,-1.38441727e-01f,
+6.21429272e-02f,+1.94354206e-01f,-8.32997635e-02f,+1.44988060e-01f,+1.38586223e-01f,
+1.17526211e-01f,+1.43254027e-01f,+3.72999340e-01f,+6.51243003e-03f,+3.43379468e-01f,
-1.09902672e-01f,-5.29974252e-02f,+5.43393055e-03f,+4.61574703e-01f,-6.81529567e-02f,
-1.85445398e-01f,-1.41052961e-01f,+4.31381427e-02f,+5.97502217e-02f,-1.24794301e-02f,
+4.37707566e-02f,+4.37021941e-01f,+7.28331730e-02f,+1.60384670e-01f,+9.21078548e-02f,
-3.27397808e-02f,+4.56544198e-02f,-3.85213383e-02f,+5.19560538e-02f,+4.56994995e-02f,
-4.24669087e-02f,+1.44643232e-01f,+1.65999025e-01f,+6.61685243e-02f,-6.50514737e-02f,
+1.09282084e-01f,+2.69144028e-01f,+5.91185629e-01f,+1.32159039e-01f,-5.30027114e-02f,
+2.53751755e-01f,-6.82388321e-02f,+8.47226754e-02f,+8.54209810e-03f,-9.88861024e-02f,
+6.61569834e-02f,-2.01361030e-02f,+1.30975926e-02f,+4.80677970e-02f,-6.77990820e-03f,
+1.77769855e-01f,+7.53928497e-02f,-9.62247550e-02f,+1.84781179e-01f,-6.03687614e-02f,
+9.84675735e-02f,-1.42526329e-01f,+6.99908584e-02f,+7.87780061e-02f,+5.73868025e-03f,
-1.14658333e-01f,+2.19339430e-01f,+5.61271012e-02f,-8.91993940e-03f,-2.79981643e-02f,
+1.48369998e-01f,+6.69515952e-02f,+1.08751141e-01f,-1.19257390e-01f,+7.95158371e-02f,
+2.18510374e-01f,-7.54937828e-02f,-1.23383291e-02f,+1.69171289e-01f,-1.84852723e-02f,
+2.65871465e-01f,-6.12474978e-04f,+1.09110423e-03f,-7.61768967e-02f,-2.07249355e-02f,
+1.04681507e-01f,+2.89669391e-02f,+2.50445813e-01f,-1.01640053e-01f,-7.99604431e-02f,
+1.50448084e-01f,+6.60869330e-02f,+1.40949324e-01f,+2.13494107e-01f,-2.36700788e-01f,
+1.26148403e-01f,-3.37873586e-02f,+4.98081557e-02f,-1.40685976e-01f,-1.14923539e-02f,
+9.87285003e-02f,+1.27739236e-01f,+1.74959585e-01f,+1.59202456e-01f,-1.48766115e-02f,
-4.74905744e-02f,+1.28239006e-01f,-5.03783859e-02f,-1.16040759e-01f,-9.99879837e-02f,
-3.78246270e-02f,-4.82793562e-02f,-5.30222915e-02f,-5.36111556e-02f,-1.30506605e-01f,
-1.20165549e-01f,+9.56377164e-02f,+1.69625506e-01f,-1.47676945e-01f,+1.29306346e-01f,
+8.34960043e-02f,-6.96122795e-02f,+2.11124018e-01f,-1.39850602e-01f,+1.32765964e-01f,
+9.66203138e-02f,+1.60617143e-01f,-1.43054858e-01f,+1.18816026e-01f,+1.56649619e-01f,
-8.62462297e-02f,+2.48810366e-01f,+2.10109383e-01f,+1.33393213e-01f,+1.12767190e-01f,
+2.84892563e-02f,+1.82429969e-01f,+2.68095173e-02f,+5.19216135e-02f,-1.38494253e-01f,
+2.01292142e-01f,+1.48043752e-01f,-8.14926177e-02f,+1.67513654e-01f,+1.14159308e-01f,
-3.59265320e-02f,+1.95983261e-01f,-2.50749663e-02f,-5.30108437e-02f,-6.87055215e-02f,
-1.42371180e-02f,-1.86459675e-01f,-3.20186615e-02f,-2.37145089e-02f,+6.22038450e-03f,
-8.86557028e-02f,+3.91808599e-02f,-1.83434859e-01f,+1.99818924e-01f,-5.91580346e-02f,
+4.10429016e-02f,-3.42755578e-02f,-5.94266467e-02f,+1.48082763e-01f,+8.75394121e-02f,
+1.48584783e-01f,-3.82581279e-02f,+1.64129168e-01f,-1.08251572e-01f,+5.07012308e-02f,
+2.29153425e-01f,+1.42045453e-01f,+1.38525993e-01f,-8.60055313e-02f,+1.28862858e-01f,
-4.34433818e-02f,-1.19946487e-01f,+6.44986331e-02f,-9.16066840e-02f,-4.10045683e-02f,
-1.81215897e-01f,-1.75672874e-01f,+8.92081857e-02f,+5.34423292e-02f,-4.72361296e-02f,
-8.45879316e-04f,+5.29276282e-02f,+1.38082087e-01f,-5.08831888e-02f,-1.19645417e-01f,
-9.76126567e-02f,+1.04863673e-01f,-2.40964442e-02f,+6.90786541e-02f,-1.63020104e-01f,
+4.47875261e-02f,-7.96891227e-02f,-1.47381410e-01f,-1.79144725e-01f,-8.45950097e-02f,
+9.99757946e-02f,+1.54332012e-01f,-1.77682310e-01f,-1.55214220e-02f,+5.71848974e-02f,
-3.95187065e-02f,-4.25793715e-02f,+4.98740077e-02f,-1.62253663e-01f,+7.69138932e-02f,
+8.04661438e-02f,+3.16698290e-02f,-1.06146395e-01f,+4.27956916e-02f,-6.07904270e-02f,
+3.74161899e-02f,-1.33853406e-01f,-1.25804901e-01f,+1.27289981e-01f,+1.36779279e-01f,
+1.78599626e-01f,+7.29173841e-03f,+3.49173099e-01f,-2.62117963e-02f,+2.01774314e-02f,
+1.80318445e-01f,+1.03372753e-01f,-1.02544203e-02f,+1.05092816e-01f,+1.36089727e-01f,
-8.17761570e-02f,+2.46935561e-02f,-1.20387590e-02f,+1.39064983e-01f,-1.63401932e-01f,
-1.02599517e-01f,-1.82539579e-02f,+9.00097340e-02f,-7.73674175e-02f,+9.71171558e-02f,
-1.98657904e-02f,+2.42922641e-02f,-2.92953420e-02f,-5.96114844e-02f,+9.57280174e-02f,
-1.33391172e-01f,+1.87746152e-01f,-1.06028102e-01f,+9.67851803e-02f,-6.50382712e-02f,
+2.82110870e-02f,+1.05972148e-01f,-1.31090224e-01f,+2.76542921e-02f,-5.69276586e-02f,
-9.53938439e-02f,+1.89259887e-01f,-9.89851775e-04f,-1.64810196e-01f,-1.41112685e-01f,
+4.60537896e-02f,+3.24883163e-02f,-1.22038148e-01f,-4.13989723e-02f,-2.29503727e-03f,
-2.53936350e-02f,-1.76577762e-01f,-5.29419556e-02f,-2.46956944e-03f,-9.68748182e-02f,
+3.76959741e-02f,-7.68387541e-02f,+3.45138758e-02f,-7.85772651e-02f,+1.32778168e-01f,
+1.69398367e-01f,+3.20108831e-02f,-1.06281638e-01f,+1.03588700e-01f,+4.91161942e-02f,
+8.51193964e-02f,+5.76634705e-03f,+9.94409323e-02f,-1.59510061e-01f,+1.69351339e-01f,
-1.48986951e-01f,+1.46532625e-01f,+1.58523321e-01f,-8.00007656e-02f,+6.91432953e-02f,
+1.09614015e-01f,+1.20411187e-01f,-1.48827434e-01f,-1.67908072e-01f,+1.53994411e-01f,
-1.35185033e-01f,-4.33070064e-02f,-1.78922981e-01f,-7.32594579e-02f,+6.70693219e-02f,
+1.13309570e-01f,-1.33731246e-01f,+1.76147699e-01f,+6.52832389e-02f,+1.95630372e-01f,
+5.66305257e-02f,+1.15181096e-01f,+8.85218158e-02f,+1.63099378e-01f,+2.04855546e-01f,
+1.49169356e-01f,-1.69979244e-01f,+3.06216511e-03f,+1.86841786e-01f,-1.30034328e-01f,
-1.39849693e-01f,+1.14554372e-02f,-1.49007484e-01f,+4.38817471e-01f,-1.71627790e-01f,
-9.67764780e-02f,+1.29187450e-01f,-5.19931354e-02f,+2.38319576e-01f,-1.48732468e-01f,
+1.54637024e-01f,-1.31919846e-01f,+1.75129637e-01f,+1.69912100e-01f,+8.76178741e-02f,
+1.61861643e-01f,+7.85117075e-02f,-1.64364845e-01f,-6.43830076e-02f,-7.73017704e-02f,
-6.84411675e-02f,+8.11859593e-02f,-4.78690863e-02f,+1.26141787e-01f,+9.77253988e-02f,
+1.20380037e-01f,-1.96305007e-01f,-9.55098420e-02f,+2.85186082e-01f,+1.37725383e-01f,
-1.55590758e-01f,-1.08791199e-02f,+5.44336177e-02f,+1.17143698e-01f,+3.10797207e-02f,
-2.90513456e-01f,+2.55513433e-02f,-3.66532081e-03f,-4.23655845e-02f,-1.23433426e-01f,
+1.13997519e-01f,+5.51161282e-02f,+2.96500344e-02f,+1.91194966e-01f,+1.70069546e-01f,
+5.61890081e-02f,+1.38717204e-01f,-1.16132632e-01f,-6.34149686e-02f,+1.55500874e-01f,
+1.59479246e-01f,-2.36602277e-02f,+1.35945454e-01f,+1.74805582e-01f,-8.95770267e-02f,
+1.42416790e-01f,-3.95105183e-02f,-1.51318878e-01f,+1.79396629e-01f,+1.87677726e-01f,
+2.24798292e-01f,+6.03864826e-02f,+1.45419180e-01f,-1.37756206e-02f,-3.51701938e-02f,
+4.05830592e-02f,+1.67474449e-01f,+8.08269903e-02f,+2.89812069e-02f,+1.65092364e-01f,
-6.04486000e-03f,+1.77939177e-01f,+1.00487322e-01f,+1.59199238e-01f,+8.72543752e-02f,
-1.60941109e-02f,+1.64895415e-01f,+1.49107024e-01f,+2.62388974e-01f,-7.80809596e-02f,
-4.27337848e-02f,-1.10023126e-01f,-1.04848392e-01f,+3.02775353e-02f,-1.01514995e-01f,
+7.17299581e-02f,+3.69653404e-02f,+3.67912799e-02f,-1.04530104e-01f,-1.12439364e-01f,
-2.92387158e-02f,-1.42549992e-01f,-1.92660123e-01f,+1.60271764e-01f,+4.31381166e-02f,
+9.27287340e-03f,-1.39877647e-01f,-1.59796953e-01f,+1.94520652e-02f,-1.47364423e-01f,
-1.10521801e-01f,+2.75627673e-02f,+8.26871097e-02f,-1.55926198e-01f,+1.04505301e-01f,
-5.96642345e-02f,-2.69989967e-02f,+1.86670780e-01f,-1.26630634e-01f,-8.96671042e-02f,
+7.81936049e-02f,+1.83917373e-01f,-5.24615049e-02f,-4.78556119e-02f,-1.19882829e-01f,
-2.54606605e-02f,+1.68787867e-01f,-1.45672113e-02f,+1.19814210e-01f,-7.99478069e-02f,
+1.10400759e-01f,-1.70060307e-01f,+1.69336289e-01f,-8.15748945e-02f,+1.56119794e-01f,
+9.57449600e-02f,+1.35661408e-01f,-1.20726041e-02f,+2.40477562e-01f,-5.30495048e-02f,
-1.34274751e-01f,+7.13244602e-02f,+1.01812162e-01f,-8.59582855e-04f,+1.84846997e-01f,
+1.04219407e-01f,+1.27871066e-01f,-7.86234736e-02f,+8.09385814e-03f,+6.27765357e-02f,
-1.00709870e-02f,+1.76309913e-01f,+1.09829895e-01f,+9.12842304e-02f,+9.53288227e-02f,
-1.14695810e-01f,+5.28059304e-02f,-2.37104297e-02f,+1.35582864e-01f,-1.63382486e-01f,
-1.11074775e-01f,+1.48806721e-01f,-1.41854137e-02f,+8.70991945e-02f,+7.99010396e-02f,
+9.24147069e-02f,+6.26638234e-02f,-6.46734834e-02f,-1.29216045e-01f,-1.86320543e-02f,
-1.24126077e-01f,+1.05220199e-01f,-2.17063427e-02f,-3.04931551e-02f,+1.47765279e-02f,
+1.33569092e-01f,+1.84646338e-01f,+1.02830976e-01f,+8.25520158e-02f,-2.52649933e-02f,
+1.75510436e-01f,-3.96421552e-03f,-3.65095437e-02f,-9.19004157e-02f,-1.68044001e-01f,
+5.76809645e-02f,-8.66465047e-02f,-1.40542075e-01f,+2.18484670e-01f,+2.19301283e-02f,
+8.73101577e-02f,+2.85006166e-01f,-7.61191323e-02f,+5.81130646e-02f,+1.31678343e-01f,
-1.67106137e-01f,+2.70006582e-02f,-1.45907670e-01f,-6.53029084e-02f,+5.26530808e-03f,
-5.39645739e-02f,-1.08877666e-01f,+2.82878131e-01f,-8.76023322e-02f,-1.35094851e-01f,
+7.12733045e-02f,+6.88724220e-02f,+4.28632982e-02f,+1.41169265e-01f,+4.56368849e-02f,
-5.37868999e-02f,-7.61467824e-03f,+1.31869957e-01f,+5.69607057e-02f,+1.78339053e-02f,
+9.71178263e-02f,+1.69688135e-01f,-1.39997661e-01f,-1.00786738e-01f,-1.52561173e-01f,
-1.45463303e-01f,-9.14853141e-02f,+2.38001253e-02f,-1.14220224e-01f,+2.07461715e-01f,
+1.96979996e-02f,+2.74814554e-02f,-1.33145377e-01f,-3.00764665e-02f,-1.62019432e-01f,
+6.40578642e-02f,-1.06675960e-01f,+1.89033836e-01f,-6.00230470e-02f,+1.02019407e-01f,
+1.11614801e-02f,+1.95012435e-01f,-6.61970451e-02f,-1.47831559e-01f,+6.64427355e-02f,
+1.40235439e-01f,-1.22518845e-01f,+4.58219796e-02f,-1.49597555e-01f,-1.59884661e-01f,
-9.49933827e-02f,+1.39911428e-01f,+1.18773110e-01f,+1.64414480e-01f,+2.21807316e-01f,
-1.35182902e-01f,+6.44042194e-02f,+1.72769576e-01f,-1.50474012e-02f,-1.61140114e-01f,
-4.47169244e-02f,+6.83158934e-02f,+7.08347857e-02f,-8.94253626e-02f,-1.87293008e-01f,
+7.50081241e-02f,-1.23356014e-01f,+1.73832744e-01f,+5.24872243e-02f,+7.54675269e-02f,
-1.17625870e-01f,+1.62256449e-01f,-6.10956699e-02f,-8.49976540e-02f,+1.16621643e-01f,
+1.82623714e-02f,-1.73559189e-02f,+1.82563215e-02f,-4.52746600e-02f,-1.75808012e-01f,
-1.44399315e-01f,-1.25396252e-01f,-4.52516973e-03f,+4.85287607e-03f,-1.09056562e-01f,
+1.18736476e-01f,+1.47974074e-01f,-1.73690721e-01f,-1.46563509e-02f,-1.56574592e-01f,
-9.03844461e-02f,+1.32527515e-01f,+1.63441852e-01f,+1.99464932e-01f,+2.27154940e-01f,
+1.29469648e-01f,-1.37134641e-01f,+4.20531370e-02f,-1.41237125e-01f,-1.30492095e-02f,
-1.19225219e-01f,+2.10194618e-01f,-2.60832738e-02f,+2.11762488e-01f,+5.19208498e-02f,
-1.21645816e-03f,+3.90312254e-01f,-2.90816668e-02f,-1.40841320e-01f,-1.52523369e-02f,
-5.64967357e-02f,+1.06899314e-01f,-5.87552674e-02f,-1.42355740e-01f,+1.96090654e-01f,
+4.52585658e-03f,-6.36605844e-02f,+7.22331703e-02f,+1.13945566e-01f,+2.69550472e-01f,
-5.87596744e-02f,+5.97507060e-02f,-1.46533281e-01f,+8.00699890e-02f,-1.00779012e-01f,
-4.18487787e-02f,-7.62337446e-02f,-1.32622018e-01f,+1.45734787e-01f,-1.82524025e-02f,
-8.89321342e-02f,-1.35187387e-01f,-7.49975145e-02f,+6.76612258e-02f,-1.82932749e-01f,
+1.48792803e-01f,-1.32950142e-01f,-2.48267055e-02f,+1.24079019e-01f,+1.29095942e-01f,
+1.42917335e-01f,+1.37149811e-01f,+1.03938937e-01f,-5.08583039e-02f,-2.00503320e-02f,
+8.16908479e-02f,+7.58748651e-02f,+1.13482893e-01f,+1.32769495e-01f,+8.71357620e-02f,
+1.76919818e-01f,-4.20798659e-02f,-7.83789009e-02f,+1.96775943e-01f,+2.55052447e-01f,
+1.27191514e-01f,+3.42746712e-02f,+8.15071836e-02f,+8.57631415e-02f,+7.69221410e-02f,
+7.53261521e-02f,+1.30699053e-01f,-1.45706370e-01f,+9.32759196e-02f,+5.69684505e-02f,
+1.80434883e-01f,+1.07397273e-01f,+5.44003509e-02f,-1.39552191e-01f,+2.47988850e-02f,
-7.36425444e-02f,+1.42602175e-01f,+9.93399844e-02f,+1.82750419e-01f,+1.08896680e-01f,
-5.75437956e-02f,-9.69524756e-02f,+1.67656273e-01f,-9.64650810e-02f,+6.40592203e-02f,
-1.28408521e-02f,+2.24407390e-01f,+1.45905077e-01f,+2.07822286e-02f,+6.53807819e-03f,
+1.95022523e-02f,-1.91159666e-01f,+9.31817293e-02f,+3.52871716e-02f,-9.62502360e-02f,
+9.57147181e-02f,+1.46104544e-01f,+1.18340254e-01f,+1.17651224e-01f,-2.30387896e-02f,
-1.51403978e-01f,-1.76295653e-01f,+1.53603584e-01f,-1.30401954e-01f,-1.51570797e-01f,
-2.22810209e-02f,+3.24350446e-02f,+7.62208700e-02f,+1.49577737e-01f,-2.92194635e-02f,
+9.24328566e-02f,+1.91378772e-01f,+8.28520060e-02f,+1.14102751e-01f,+6.41625822e-02f,
+6.68689311e-02f,+8.72714818e-03f,+7.21972883e-02f,+1.66809410e-01f,+1.44553065e-01f,
+3.44667286e-02f,-1.16471626e-01f,+1.80965990e-01f,-7.44415820e-02f,+6.29763901e-02f,
+1.67563975e-01f,-1.46144629e-03f,+1.19282514e-01f,+6.72914088e-02f,-5.44635057e-02f,
+6.54728711e-02f,+6.91328347e-02f,+1.71220750e-01f,-1.52051970e-01f,-4.41049486e-02f,
+4.41448390e-02f,-1.84860930e-01f,-1.50316447e-01f,+1.72895491e-01f,+1.24364465e-01f,
-4.74015474e-02f,-1.40018374e-01f,-1.30563036e-01f,+7.11081326e-02f,-1.79541275e-01f,
-4.58348840e-02f,+1.63323849e-01f,+1.05530590e-01f,-1.78284585e-01f,-1.01371825e-01f,
-1.09171525e-01f,+8.57440233e-02f,-1.09030709e-01f,+3.48792553e-01f,+3.21997218e-02f,
+1.49622932e-01f,+2.20055565e-01f,-5.43674901e-02f,+3.77953872e-02f,+5.61113417e-01f,
-1.71463743e-01f,-1.33997068e-01f,-7.25379512e-02f,+6.90993518e-02f,-5.75711876e-02f,
+1.08025365e-01f,+2.86550522e-01f,+4.19014186e-01f,+5.69209158e-02f,+1.42641872e-01f,
+3.80835086e-02f,+2.11791649e-01f,+1.23964049e-01f,+7.18246698e-02f,+1.21088177e-02f,
+4.71970364e-02f,-6.85142179e-04f,-1.53477669e-01f,-4.24944051e-03f,-5.67768775e-02f,
+1.22518763e-01f,+1.10445350e-01f,+9.82047394e-02f,+1.70051247e-01f,-7.11330622e-02f,
+2.93398779e-02f,+2.17164919e-01f,+5.31061599e-03f,-8.60632733e-02f,+2.75959730e-01f,
+1.93837613e-01f,-2.28889138e-02f,+7.64417201e-02f,-5.85883185e-02f,-1.04724728e-02f,
-1.63907915e-01f,+1.76057205e-01f,+1.27886683e-01f,-1.53615028e-01f,+1.60705596e-01f,
+1.47282124e-01f,+1.69111222e-01f,-6.70323074e-02f,-1.38522640e-01f,+9.19201523e-02f,
+8.88148025e-02f,-5.11875097e-03f,-1.49190918e-01f,-5.48942871e-02f,+3.89420427e-02f,
+1.12133123e-01f,+7.85212442e-02f,+1.23466097e-01f,+2.10375041e-01f,+1.21756770e-01f,
+5.11897430e-02f,-1.17617227e-01f,+5.20728119e-02f,+1.24596715e-01f,+2.14897573e-01f,
-1.75130308e-01f,+5.16869128e-03f,-3.86010557e-02f,+9.62367654e-02f,-6.92874938e-02f,
-2.09596649e-01f,-1.72711276e-02f,+1.89764485e-01f,+3.95515654e-03f,+1.69600874e-01f,
+3.07723247e-02f,+1.23990523e-02f,+6.85329139e-02f,+9.81450230e-02f,-1.28395081e-01f,
+1.28042847e-01f,-8.55905265e-02f,-7.03106523e-02f,+1.40722960e-01f,+6.63177893e-02f,
+2.39008352e-01f,+2.58226264e-02f,+8.75203870e-03f,-1.39320046e-01f,-3.27429920e-02f,
+5.35740182e-02f,+2.08803430e-01f,+1.75313324e-01f,-1.66936398e-01f,-9.45042912e-03f,
+2.44278640e-01f,+1.88357562e-01f,+1.46679476e-01f,-3.22451144e-02f,+1.35949150e-01f,
+7.07345977e-02f,-5.29948473e-02f,-1.35279790e-01f,+8.47546384e-02f,+7.68079609e-03f,
+1.95637375e-01f,-1.48194078e-02f,+2.24368665e-02f,-1.00171931e-01f,-6.83965385e-02f,
-3.39346603e-02f,+1.54881686e-01f,-1.57539487e-01f,-1.70971677e-01f,-5.64618818e-02f,
+1.54960692e-01f,+2.33737994e-02f,-3.32582369e-02f,+2.10909337e-01f,+6.45495877e-02f,
+9.78292897e-02f,+7.49067739e-02f,+1.89801484e-01f,-7.09383860e-02f,+2.32601672e-01f,
+8.90178606e-02f,+2.27205977e-01f,+5.39725497e-02f,+3.00938010e-01f,-1.65986687e-01f,
-5.02198897e-02f,-1.59134477e-01f,+9.40664783e-02f,+1.35502011e-01f,-7.53973648e-02f,
-3.25227305e-02f,+2.26014912e-01f,-9.85053182e-02f,+1.80671930e-01f,-1.75374761e-01f,
+7.35267177e-02f,-9.20358747e-02f,-1.30127698e-01f,-1.25031382e-01f,+5.15150368e-01f,
-9.28181782e-02f,-1.86435238e-01f,+5.91745749e-02f,-1.37007892e-01f,-4.82764235e-03f,
+1.85811147e-01f,-1.04426533e-01f,+1.18920229e-01f,-5.99427037e-02f,+9.69234854e-02f,
-1.05636604e-01f,+6.62049115e-01f,+1.69855759e-01f,+5.69572523e-02f,+7.10245073e-02f,
-5.78037798e-02f,+3.55704948e-02f,+1.68832272e-01f,+4.64219674e-02f,-1.14285827e-01f,
-1.37295455e-01f,+1.01837376e-02f,+9.10777450e-02f,+1.42902896e-01f,-9.21491012e-02f,
-1.46846669e-02f,+7.81872645e-02f,+8.35219994e-02f,+2.65880506e-02f,+1.25642434e-01f,
-1.42149790e-03f,+1.47291258e-01f,+1.00618489e-02f,-1.35734066e-01f,+1.85958937e-01f,
-3.26956585e-02f,+1.86142921e-01f,+2.80025546e-02f,-5.25230169e-02f,-4.77643311e-02f,
+6.98334649e-02f,+2.05788687e-01f,-9.81573015e-02f,+1.91537902e-01f,+8.99252817e-02f,
+5.69950156e-02f,+8.78502950e-02f,+4.50357012e-02f,-1.00489564e-01f,+1.47371531e-01f,
+1.37062758e-01f,+4.51412052e-02f,-1.45197809e-01f,-1.02930605e-01f,+1.63339496e-01f,
-1.24046758e-01f,+7.14369193e-02f,+9.52311307e-02f,+1.44529343e-01f,+1.96574524e-01f,
-1.18069544e-01f,+1.25953540e-01f,+7.37761408e-02f,+3.10483366e-01f,+1.65763855e-01f,
-6.84977695e-02f,+4.97720838e-02f,+1.94918618e-01f,-3.93423997e-02f,+8.42883438e-02f,
-3.66835408e-02f,-6.22908911e-03f,+8.31280351e-02f,+1.30221471e-01f,+1.36412039e-01f,
-9.99028608e-02f,-1.38678193e-01f,+1.73428968e-01f,-2.49468796e-02f,-5.56787848e-02f,
+1.07535243e-01f,-6.25414774e-03f,+8.99832919e-02f,+2.00360060e-01f,-3.18510085e-02f,
+1.55443130e-02f,-2.83295494e-02f,-1.02532715e-01f,-1.93314087e-02f,-1.12496085e-01f,
-1.21509179e-01f,+1.41564965e-01f,-7.03525618e-02f,+1.05042057e-02f,+1.14711992e-01f,
-1.80777803e-01f,-5.91293797e-02f,+1.57790825e-01f,-1.55862808e-01f,+1.26965225e-01f,
+2.68726628e-02f,+1.81811571e-01f,+7.38634728e-03f,-1.14880405e-01f,-3.85300182e-02f,
+1.12078167e-01f,+1.78190079e-02f,+2.32055515e-01f,-1.58378452e-01f,+8.15557316e-02f,
-2.60045286e-02f,+1.23944014e-01f,+2.03054488e-01f,+5.20873927e-02f,-1.14512086e-01f,
+2.36612827e-01f,+1.79162711e-01f,+5.86940832e-02f,-2.55881846e-02f,+4.11658064e-02f,
-2.04237998e-01f,+1.91559136e-01f,+1.17005669e-01f,-6.05606753e-03f,+1.00040875e-01f,
-2.40425486e-02f,+2.81908065e-02f,+5.64478189e-02f,+3.74721922e-02f,-5.44730537e-02f,
+1.78805515e-02f,-6.57104477e-02f,+5.84795214e-02f,-6.76883105e-03f,+1.62564963e-01f,
+1.99495912e-01f,-5.34697808e-02f,+1.40832976e-01f,-7.00204298e-02f,+9.24016982e-02f,
+9.26512554e-02f,+1.37492374e-01f,-9.42705646e-02f,+3.40906493e-02f,-3.92407961e-02f,
+2.06553340e-01f,-4.91652973e-02f,+7.94429109e-02f,+1.75127089e-02f,+9.62210596e-02f,
+1.14429995e-01f,+1.31983295e-01f,-8.32088739e-02f,+1.48302724e-03f,-1.37749821e-01f,
+1.30110085e-01f,-6.84636906e-02f,+2.05643341e-01f,+6.27687201e-02f,-1.77788794e-01f,
+1.43631876e-01f,+1.83361143e-01f,-3.51980589e-02f,-1.16263799e-01f,+2.79933006e-01f,
+3.01774368e-02f,-8.63490030e-02f,+7.19292089e-02f,+1.33265927e-01f,-9.89774168e-02f,
+1.90477192e-01f,-9.44083706e-02f,+1.66658819e-01f,+2.04960763e-01f,+1.02749884e-01f,
-5.46916425e-02f,+1.48550391e-01f,-1.16888834e-02f,+2.48726439e-02f,-3.93521525e-02f,
+1.43818781e-01f,-2.06715226e-01f,+1.76675230e-01f,+1.33751184e-01f,-8.32548738e-02f,
+6.54172385e-03f,+5.78381754e-02f,+1.95605238e-03f,+4.77111153e-02f,+1.00976497e-01f,
+1.61496282e-01f,+1.21905081e-01f,+1.39741693e-03f,+1.15915976e-01f,+7.05498382e-02f,
+1.56382531e-01f,+1.83865741e-01f,+1.18912011e-01f,-6.59316182e-02f,+1.01444513e-01f,
+7.53505155e-02f,+1.58953965e-01f,+1.58511885e-02f,-8.72335732e-02f,+2.96837427e-02f,
-1.01062156e-01f,+2.05449417e-01f,+1.61894158e-01f,+1.78450704e-01f,-2.01802310e-02f,
+1.16504624e-01f,+6.28549680e-02f,-1.18763838e-02f,+1.61445662e-01f,-1.44652173e-01f,
+2.02044949e-01f,+1.54466733e-01f,-2.85104979e-02f,-1.81213841e-01f,-1.43175665e-02f,
-1.75913408e-01f,+8.61956831e-03f,+8.59003961e-02f,+2.29584239e-02f,-1.04722187e-01f,
-1.05679981e-01f,-9.16193724e-02f,-8.81048515e-02f,+1.30228043e-01f,+1.78649634e-01f,
-9.00313109e-02f,-1.84812292e-01f,+9.19234306e-02f,-7.37427771e-02f,+1.62995264e-01f,
+2.62420364e-02f,-4.47550267e-02f,+4.47005033e-03f,-1.49160236e-01f,-1.65984377e-01f,
+3.72916460e-04f,-9.39296186e-02f,+7.47343898e-02f,-7.03263953e-02f,+1.96968019e-03f,
+1.31323367e-01f,+2.18972117e-02f,+4.43000197e-02f,-5.17105609e-02f,+1.85730308e-01f,
+1.91501558e-01f,+7.84350336e-02f,+1.28876925e-01f,+1.61045521e-01f,-3.47143859e-02f,
+1.40122324e-02f,+1.22845650e-01f,-1.73192874e-01f,+5.76341152e-02f,-1.54733822e-01f,
+1.49464667e-01f,-9.80086997e-02f,+1.39503717e-01f,-1.91170603e-01f,+9.98415351e-02f,
+8.86566341e-02f,+1.71988815e-01f,-8.21079463e-02f,+1.91790789e-01f,+9.23862159e-02f,
+3.18834484e-02f,-7.08417445e-02f,-1.00943789e-01f,+2.42465883e-02f,-9.46659297e-02f,
+8.26567411e-04f,+1.47171468e-02f,-9.32217911e-02f,+9.19784009e-02f,+2.27421522e-03f,
+1.03578359e-01f,+1.04212463e-01f,-2.52817571e-02f,+1.84919983e-01f,+7.62670934e-02f,
-8.41050595e-02f,-5.81704080e-02f,+1.74276471e-01f,+8.52625668e-02f,+1.46319002e-01f,
+4.88685369e-02f,+1.28770143e-01f,-9.55247730e-02f,-1.01743124e-01f,-9.48952958e-02f,
-1.06189109e-01f,-1.90643623e-01f,+6.81711137e-02f,-4.27032858e-02f,-4.86685336e-02f,
-9.57829058e-02f,-1.58737734e-01f,-3.34935226e-02f,+1.75953507e-01f,-1.70678228e-01f,
-1.73332751e-01f,+3.58205079e-03f,-2.79240366e-02f,-1.79958403e-01f,+8.18644390e-02f,
-6.16878346e-02f,-2.56358147e-01f,+2.35546567e-03f,+5.39182052e-02f,-1.48521528e-01f,
+8.09769183e-02f,+2.30655745e-01f,-2.52404600e-01f,-4.58856784e-02f,+7.02508017e-02f,
+1.12450525e-01f,+4.11180556e-02f,+4.29525934e-02f,-2.16907170e-02f,+1.22498006e-01f,
-6.47559538e-02f,-1.90918371e-02f,+8.51937309e-02f,-1.24480061e-01f,+7.31707513e-02f,
+8.50182772e-02f,-2.01438978e-01f,-8.77806619e-02f,-1.14179188e-02f,-2.18712930e-02f,
-5.06407976e-01f,+1.21522240e-01f,+2.10967273e-01f,-9.82226208e-02f,+3.49149078e-01f,
-2.26475656e-01f,+2.45498791e-02f,+1.71769619e-01f,+7.78974667e-02f,-2.62043655e-01f,
+2.12951452e-01f,-2.46893898e-01f,-2.79769123e-01f,+5.51502518e-02f,-2.21515894e-02f,
+2.16446191e-01f,+3.74465585e-01f,+1.03193678e-01f,-1.31943701e-02f,+2.63381124e-01f,
+1.05279081e-01f,-1.82254300e-01f,+1.44622801e-02f,-1.73183978e-02f,+1.13242067e-01f,
-2.21675590e-01f,+2.58760482e-01f,+1.57236308e-01f,+2.03115031e-01f,+3.79073131e-03f,
-1.11647606e-01f,-1.16871178e-01f,+1.78249795e-02f,+6.63167685e-02f,-8.28615427e-02f,
-7.79115111e-02f,+9.26451460e-02f,+7.49785304e-02f,-1.67624522e-02f,+6.38380423e-02f,
-1.54280141e-01f,-9.63003933e-03f,+2.56246984e-01f,-1.23874612e-01f,+1.26751423e-01f,
+9.80975479e-02f,-9.66822132e-02f,-4.27788943e-02f,-1.06624946e-01f,-1.91317260e-01f,
-5.89497052e-02f,+2.86153257e-02f,+1.41316786e-01f,+2.76594996e-01f,-1.11388303e-01f,
-9.04159471e-02f,+8.40692781e-03f,+2.98748743e-02f,-2.58078694e-01f,-1.89156577e-01f,
+1.77588850e-01f,+6.23952448e-02f,+5.41045293e-02f,-1.62160277e-01f,+1.49612844e-01f,
+4.92855385e-02f,-4.00357821e-04f,+9.47799757e-02f,-9.66408625e-02f,-1.93145379e-01f,
+1.52902275e-01f,+1.96668133e-02f,-5.68133108e-02f,+1.62139252e-01f,+6.46878034e-05f,
+1.67982951e-02f,+1.37558848e-01f,+1.52147591e-01f,-5.71362376e-02f,+1.81336850e-01f,
-1.08216397e-01f,-1.38053447e-01f,-1.48980364e-01f,-1.17208369e-01f,+7.01541081e-02f,
+1.80676147e-01f,+1.03132233e-01f,-1.07576981e-01f,-5.43922745e-02f,-1.02579370e-01f,
+1.06523536e-01f,+1.65908068e-01f,+1.17921690e-02f,+6.57131672e-02f,-1.74615964e-01f,
+6.75948113e-02f,+9.83166099e-02f,+1.63371310e-01f,-1.97444692e-01f,+1.79796204e-01f,
-1.03465110e-01f,-1.55309457e-02f,+7.77484626e-02f,-2.39448785e-03f,+1.11417957e-01f,
+1.27332494e-01f,+9.24087614e-02f,-1.56724215e-01f,-1.31224915e-01f,-9.19196904e-02f,
-1.79634467e-01f,-2.19883174e-01f,-1.98910803e-01f,+1.24668032e-01f,-1.22138800e-03f,
+4.39024009e-02f,-4.28698724e-03f,-4.50097099e-02f,+1.85088051e-04f,-1.48550078e-01f,
-1.85077548e-01f,+1.64985210e-01f,-1.53529542e-02f,-6.57249894e-03f,+4.48647216e-02f,
+3.51773389e-02f,+5.44157252e-02f,-5.36765344e-02f,+6.08700998e-02f,-9.06099007e-02f,
-5.03476858e-02f,+1.88686162e-01f,-1.24306373e-01f,-1.28387511e-01f,-5.56206070e-02f,
+6.86976872e-03f,-1.95172295e-01f,+2.79526543e-02f,+6.85975924e-02f,-1.76816955e-01f,
+1.27772659e-01f,-7.03878701e-02f,-1.63807794e-01f,-2.80618742e-02f,+7.52772391e-03f,
+1.56603590e-01f,+1.84289947e-01f,+8.48069787e-03f,-1.61038544e-02f,+3.07451878e-02f,
-1.20945744e-01f,-7.86383171e-03f,+5.88913336e-02f,+6.78700656e-02f,+1.33892417e-01f,
+5.45580685e-02f,-8.33642855e-02f,+1.03163145e-01f,+5.71968816e-02f,+1.29129842e-01f,
-1.81147441e-01f,+1.37782976e-01f,-1.44805133e-01f,+1.37464732e-01f,-1.69417020e-02f,
+5.83781712e-02f,-2.37347543e-01f,-1.69323921e-01f,-1.59631774e-01f,-1.96513101e-01f,
+6.63110837e-02f,-1.61579132e-01f,-9.54541937e-02f,-8.07595626e-02f,+7.03499019e-02f,
-1.79492831e-01f,-2.29561418e-01f,-7.03171715e-02f,+2.27114156e-01f,-1.28323779e-01f,
-1.37805879e-01f,-2.59742327e-02f,-2.59905457e-01f,-4.12692502e-02f,+3.82162929e-02f,
+1.50107415e-02f,-1.30252108e-01f,+4.19437587e-02f,+2.34276161e-01f,+2.77034612e-03f,
-3.22184324e-01f,+2.80343324e-01f,-7.09633380e-02f,-1.59386694e-01f,-2.20948860e-01f,
+3.52480449e-02f,-1.25846595e-01f,-2.90329367e-01f,+2.88896039e-02f,+3.37133463e-03f,
-8.48849714e-02f,-8.46565962e-02f,+2.10877046e-01f,-1.60723954e-01f,-8.61359295e-03f,
+1.19272433e-01f,+9.30928290e-02f,-2.41140589e-01f,-2.41109684e-01f,-1.11013532e-01f,
+1.00918792e-01f,+1.69549689e-01f,-6.86244369e-02f,+2.91719645e-01f,-7.43184313e-02f,
+9.33481678e-02f,-1.88335180e-01f,-1.09878451e-01f,-2.84513950e-01f,-3.99391174e-01f,
+1.95199884e-02f,+1.60290133e-02f,+3.77514958e-03f,-6.34451061e-02f,-1.48579046e-01f,
-1.61563963e-01f,+1.64452225e-01f,-1.76750556e-01f,-1.47987619e-01f,+1.82253420e-02f,
+7.87478685e-02f,-7.66181052e-02f,+1.48330569e-01f,+1.37217075e-01f,-1.54060572e-01f,
-2.00595260e-02f,+6.25868440e-02f,-1.26055330e-01f,+1.31388515e-01f,+9.13235247e-02f,
+1.11956507e-01f,+3.60995680e-02f,-5.42878360e-02f,-4.28747684e-02f,+4.01990116e-02f,
-1.88689455e-01f,-8.41303617e-02f,+8.35479796e-02f,+1.22146547e-01f,-6.60630614e-02f,
-1.33682713e-01f,+1.60643697e-01f,-5.72087467e-02f,+1.43941283e-01f,+1.47405252e-01f,
-7.57934749e-02f,+1.32885426e-01f,-1.24730259e-01f,-1.18870765e-01f,-9.24066156e-02f,
+5.42895347e-02f,-6.37916252e-02f,-2.03334108e-01f,+6.05748072e-02f,-1.76404804e-01f,
-1.13837169e-02f,+5.97747974e-02f,+1.33041993e-01f,-9.40475240e-02f,+1.98325589e-01f,
+7.12389452e-03f,+5.43153845e-02f,+1.26861751e-01f,-8.00811127e-02f,-8.11876059e-02f,
+1.10117063e-01f,-8.04642662e-02f,+1.89955965e-01f,-8.41581523e-02f,+5.64856492e-02f,
-7.72306276e-03f,+1.67478219e-01f,-6.50251433e-02f,+3.21282595e-02f,+1.32504970e-01f,
-1.38826743e-01f,+1.43267661e-01f,+7.07909763e-02f,+7.66009614e-02f,+1.12197109e-01f,
+1.61583826e-01f,+6.80669621e-02f,-1.97140992e-01f,+2.85426117e-02f,-1.56280965e-01f,
+3.64820324e-02f,-1.08178452e-01f,+3.83430645e-02f,-1.86466035e-02f,-2.70101987e-02f,
+2.39791572e-02f,+1.12255447e-01f,+8.88207555e-02f,-1.34592012e-01f,+4.10131086e-03f,
+4.65792976e-02f,+1.42200500e-01f,-1.55714750e-01f,-2.11828858e-01f,+3.47536467e-02f,
+2.48642396e-02f,-7.68427998e-02f,-4.04633209e-02f,+4.24019434e-02f,-1.62711576e-01f,
-1.41058370e-01f,-2.08707862e-02f,+6.35077655e-02f,-1.15847461e-01f,-1.52766258e-01f,
-7.40668699e-02f,+7.03012347e-02f,-1.07116014e-01f,-6.47314340e-02f,-1.72431767e-02f,
-5.26105314e-02f,-7.10462257e-02f,-6.51801080e-02f,-6.40864372e-02f,+1.39919668e-02f,
+1.74536586e-01f,+6.71489239e-02f,+1.73154414e-01f,+1.25368595e-01f,-1.78780869e-01f,
-8.51314068e-02f,+1.54766828e-01f,-1.91005781e-01f,+1.45276964e-01f,+1.29145354e-01f,
+1.48148805e-01f,+6.41348362e-02f,-5.91561198e-03f,-1.26738220e-01f,-1.56910479e-01f,
+3.09157819e-02f,-1.60577744e-02f,-5.68781346e-02f,-1.01889431e-01f,+1.55292064e-01f,
-1.27964154e-01f,+1.34712949e-01f,-6.58508390e-02f,-7.90007710e-02f,-5.68742037e-01f,
-1.43752515e-01f,-9.89977419e-02f,-2.15810388e-01f,+1.05504552e-02f,+1.14313878e-01f,
-1.92983210e-01f,+1.90863341e-01f,+1.15845233e-01f,+1.10518962e-01f,+1.33942023e-01f,
+3.61615531e-02f,-1.57331109e-01f,+1.04710244e-01f,-9.58437333e-04f,+6.28162399e-02f,
+4.22674008e-02f,+1.18373260e-01f,-1.84983626e-01f,+2.40383402e-01f,+1.40186459e-01f,
+4.71350811e-02f,+7.33497515e-02f,-1.39004126e-01f,-3.64904314e-01f,-1.93140432e-01f,
+1.16722003e-01f,-8.72640833e-02f,-2.03880787e-01f,+9.59594771e-02f,-1.74153402e-01f,
+1.12496272e-01f,-1.63659036e-01f,-6.01557344e-02f,+1.51750609e-01f,-6.14957325e-02f,
+5.27627319e-02f,-1.77970663e-01f,-8.92126858e-02f,-1.09095447e-01f,+3.50804031e-02f,
+8.29142258e-02f,-2.87634544e-02f,+1.79005027e-01f,-7.10598901e-02f,-1.65245026e-01f,
+1.05837118e-02f,+1.24084450e-01f,+2.91726850e-02f,+1.55970976e-01f,+1.58101767e-01f,
-9.65343863e-02f,-2.67653298e-02f,-1.70605108e-01f,+4.40487675e-02f,+2.07518831e-01f,
-2.03945979e-01f,-1.79675937e-01f,-6.51819259e-02f,-5.23470268e-02f,+1.18027940e-01f,
+7.54932985e-02f,+4.51376513e-02f,-7.18053132e-02f,+4.45466749e-02f,-1.27418153e-02f,
+9.69858468e-02f,-8.81044343e-02f,-1.63307577e-01f,-5.81096634e-02f,+1.12636134e-01f,
+1.39398888e-01f,-4.16729087e-03f,+1.43599048e-01f,+5.56410244e-03f,+1.33371845e-01f,
-1.31928235e-01f,+5.18498197e-02f,+8.85103568e-02f,+1.86345242e-02f,+6.63757920e-02f,
-1.42216653e-01f,+9.60151404e-02f,-1.90952942e-01f,+7.99579471e-02f,-1.19340837e-01f,
+7.27643520e-02f,+6.31780922e-02f,+3.92412096e-02f,-3.81368259e-03f,-1.14364222e-01f,
+9.44923013e-02f,+8.30356926e-02f,+6.76444694e-02f,+1.31481960e-01f,-1.05662733e-01f,
-1.22527882e-01f,+1.93513304e-01f,-1.42121270e-01f,-1.81509051e-02f,+8.00462961e-02f,
+9.21233669e-02f,+9.89831910e-02f,-1.38931334e-01f,+8.69664475e-02f,-1.57292649e-01f,
+7.58304596e-02f,+4.03033458e-02f,+1.27645418e-01f,-1.32463306e-01f,+1.08029865e-01f,
+7.86153749e-02f,+2.36798882e-01f,+2.38501304e-03f,+7.17489496e-02f,+8.01805854e-02f,
+8.14382583e-02f,+1.72639444e-01f,-1.30364746e-01f,-9.34339389e-02f,-1.31212547e-01f,
+9.97283217e-03f,-1.15755513e-01f,+1.71988070e-01f,+2.48807251e-01f,+1.00874901e-01f,
-8.89989659e-02f,-1.33566067e-01f,+1.73120767e-01f,+1.59168109e-01f,+1.03282489e-01f,
-2.81415191e-02f,+9.09580588e-02f,+1.39885023e-01f,+3.15797329e-02f,-9.38454568e-02f,
+2.22772956e-01f,-7.72239864e-02f,+1.06949836e-01f,-5.26577570e-02f,+4.49442938e-02f,
+2.49739438e-01f,+1.44275337e-01f,+1.95162639e-01f,-3.60732414e-02f,+1.53865173e-01f,
+6.00107983e-02f,-1.27713993e-01f,-4.56237495e-02f,-1.35377765e-01f,-1.97131172e-01f,
-2.37138808e-01f,+2.43659943e-01f,+1.61775559e-01f,+1.45018073e-02f,-2.20175654e-01f,
-1.10550612e-01f,+1.01166852e-01f,-4.32671547e-01f,-7.10832998e-02f,-1.90960512e-01f,
-1.08614609e-01f,-1.53582945e-01f,-1.90317661e-01f,-1.67743087e-01f,-3.86284143e-02f,
-7.18454123e-02f,-2.56148607e-01f,-8.31529200e-02f,-5.98537683e-01f,+1.11591913e-01f,
-7.91869238e-02f,-9.97660235e-02f,-3.51546764e-01f,+2.02584460e-01f,+2.25889325e-01f,
+8.46391991e-02f,+3.72726992e-02f,+7.35721961e-02f,+2.89503515e-01f,+1.94689278e-02f,
-1.05189160e-01f,+1.39387354e-01f,+1.22264676e-01f,-1.77311137e-01f,-3.83150399e-01f,
+5.26309550e-01f,+5.17658852e-02f,+3.41092981e-02f,-6.56589717e-02f,+5.37903048e-03f,
-7.93834552e-02f,+4.52294573e-02f,-1.23241059e-01f,+3.79774161e-02f,+8.70381147e-02f,
-9.54848155e-02f,-8.94800723e-02f,-2.70784181e-02f,-1.45583570e-01f,+8.45642090e-02f,
+1.09664254e-01f,-1.97029293e-01f,-3.02586313e-02f,-4.90156189e-02f,-3.75693152e-03f,
+6.80475831e-02f,+2.00424969e-01f,+1.22420594e-01f,+2.02743962e-01f,-1.39223114e-01f,
+5.62756248e-02f,+2.16817278e-02f,+1.77126825e-01f,+1.15731962e-01f,+1.25447139e-01f,
-2.38648325e-01f,-1.86021149e-01f,-1.20005801e-01f,-1.16830766e-01f,-1.45675540e-01f,
+1.74554750e-01f,-4.03201655e-02f,-2.98616365e-02f,-3.38494293e-02f,-1.13398761e-01f,
+1.29905403e-01f,-2.38555029e-01f,+7.26510258e-03f,-1.57186285e-01f,-1.37480706e-01f,
-2.43034467e-01f,+9.19801220e-02f,-2.23098442e-01f,+2.00788841e-01f,-6.35608956e-02f,
+5.79203181e-02f,-3.55108306e-02f,+1.76741555e-01f,-2.73484224e-03f,-2.04784274e-02f,
